1.2097951
0.2469182
3.6308408
0.20349154
0.56384444
-1.7986407
1.7618057
0.24358296
1.1536529
3.097117
0.04152681
2.4111862
2.3510053
2.174563
1.0371825
0.40683603
5.6882987
0.10520177
0.47022292
-12.602923
1.3948674
-2.6957176
0.79402745
-1.8964719
2.0328908
1.8562131
1.3034091
-0.93658304
0.6722372
0.30820635
-1.7404927
0.2758077
0.06827399879693985
0.06516013294458389
0.058698832988739014
0.0
0.0
0.0
0.0
0.0
0.0
0.0
0.0
0.0
0.0
0.0
0.0
0.0
0.3361598551273346
0.3814210593700409
0.38085079193115234
0.0
0.0
0.0
0.0
0.0
0.0
0.0
0.0
0.0
0.0
0.0
0.0
0.0
-0.04200874
-0.03595427
-0.12545782
-0.00952088
-0.12683195
0.00463059
-0.00271546
0.11208438
-0.02013189
-0.14785802
-0.0072384
-0.001485
-0.01124531
-0.11330803
-0.05026137
0.08474356
0.43920124
-0.00540258
-0.04515895
-0.10055561
-0.25329342
-0.0024619
-0.13023087
-0.00379713
-0.02687515
-0.02945257
-0.00751772
-0.10132232
-0.00133308
0.062512
0.10593865
-0.05806972
1.2097951
0.2469182
3.6308408
0.20349154
0.56384444
-1.7986407
1.7618057
0.24358296
1.1536529
3.097117
0.041526813
2.4111862
2.3510053
2.174563
1.0371825
0.40683603
5.6882987
0.10520177
0.47022292
-12.602923
1.3948674
-2.6957176
0.79402745
-1.8964719
2.0328908
1.8562131
1.3034091
-0.93658304
0.6722372
0.30820635
-1.7404927
0.2758077