1.2097951173782349
0.2469182014465332
3.6308407783508301
0.2034915387630463
0.5638444423675537
-1.7986407279968262
1.7618056535720825
0.2435829639434814
1.1536529064178467
3.0971169471740723
0.0415268130600452
2.4111862182617188
2.3510053157806396
2.1745629310607910
1.0371824502944946
0.4068360328674316
5.6882987022399902
0.1052017733454704
0.4702229201793671
-12.6029233932495117
1.3948674201965332
-2.6957175731658936
0.7940274477005005
-1.8964718580245972
2.0328907966613770
1.8562130928039551
1.3034090995788574
-0.9365830421447754
0.6722372174263000
0.3082063496112823
-1.7404927015304565
0.2758077085018158
0.06826309943064826080
0.06516040550177371049
0.05868745955755664406
0.00000000000000000000
0.00000000000000000000
0.00000000000000000000
0.00000000000000000000
0.00000000000000000000
0.00000000000000000000
0.00000000000000000000
0.00000000000000000000
0.00000000000000000000
0.00000000000000000000
0.00000000000000000000
0.00000000000000000000
0.00000000000000000000
0.33874358921881086992
0.38084170961244834253
0.37842322179961307427
0.00000000000000000000
0.00000000000000000000
0.00000000000000000000
0.00000000000000000000
0.00000000000000000000
0.00000000000000000000
0.00000000000000000000
0.00000000000000000000
0.00000000000000000000
0.00000000000000000000
0.00000000000000000000
0.00000000000000000000
0.00000000000000000000
-0.0420087426900864
-0.0359542705118656
-0.1254578232765198
-0.0095208790153265
-0.1268319487571716
0.0046305921860039
-0.0027154562994838
0.1120843812823296
-0.0201318934559822
-0.1478580236434937
-0.0072384001687169
-0.0014849968720227
-0.0112453075125813
-0.1133080348372459
-0.0502613671123981
0.0847435593605042
0.4392012357711792
-0.0054025826975703
-0.0451589524745941
-0.1005556136369705
-0.2532934248447418
-0.0024619034957141
-0.1302308738231659
-0.0037971278652549
-0.0268751513212919
-0.0294525716453791
-0.0075177154503763
-0.1013223156332970
-0.0013330797664821
0.0625120028853416
0.1059386506676674
-0.0580697245895863
1.2097951173782349
0.2469182014465332
3.6308407783508301
0.2034915387630463
0.5638444423675537
-1.7986407279968262
1.7618056535720825
0.2435829639434814
1.1536529064178467
3.0971169471740723
0.0415268130600452
2.4111862182617188
2.3510053157806396
2.1745629310607910
1.0371824502944946
0.4068360328674316
5.6882987022399902
0.1052017733454704
0.4702229201793671
-12.6029233932495117
1.3948674201965332
-2.6957175731658936
0.7940274477005005
-1.8964718580245972
2.0328907966613770
1.8562130928039551
1.3034090995788574
-0.9365830421447754
0.6722372174263000
0.3082063496112823
-1.7404927015304565
0.2758077085018158
0.0002245878276881
0.0048391944728792
0.0000695227427059
0.0004205477889627
0.0024054618552327
0.0001839098258642
0.0010739358840510
-0.0003640562063083
-0.0004081442020833
0.0004487736150622
-0.0034115025773644
0.0005187792703509
0.0000356450109393
0.0015000452985987
0.0000536063562322
0.0007441818015650
-0.0005676486180164
0.0004932761657983
0.0005096759996377
-0.0013194833882153
0.0020111838821322
-0.0013188433367759
-0.0019964592065662
-0.0005873345071450
0.0008835010230541
-0.0001248863991350
-0.0002798071072903
0.0010324749164283
0.0001096947162296
0.0005778673803434
0.0003951473045163
0.0007613296620548
0.0006339675164782
-0.0001033949229168
0.0020265784114599
-0.0004747885686811
0.0005555144161917
0.0005195910343900
0.0003685906121973
0.0000137268270919
0.0000329993526975
-0.0010894529987127
-0.0003667451092042
0.0019241032423452
-0.0010080094216391
-0.0000795901942183
0.0013384994817898
0.0002691958507057
0.0005776561447419
-0.0003050589584745
0.0007615042268299
-0.0010630002943799
0.0007265202584676
-0.0002463881683070
-0.0018788110464811
-0.0010518193012103
-0.0013734420062974
0.0025708486791700
0.0023393665906042
0.0003467606438790
0.0016857779119164
0.0001661301648710
-0.0002692262642086
0.0010967298876494
-1.70998678102007994895
-0.26546339003490332376
-2.96175065468441056638
-0.62169465561483616689
-0.27899892212619559206
2.59273951262863544542
-1.47238026762055040919
0.10937855855325268051
-0.69003468778719323495
-1.15636665190450727003
-0.20470060678925805497
-0.35562454517392794173
-2.84325702355003162580
-1.23142528683589969063
-2.08638699176323250128
0.30417276264505083150
-2.47582460512075996917
0.15552502261894651792
-0.45668137817689691271
4.57246579833382771341
-1.09067455172278071629
2.98699044725437667935
-0.37278228000430302380
1.06813823070171065588
-1.54723939269232202420
-0.70291244160153987242
-1.41097055344000121835
0.32752891163744957126
-1.21312202588274087312
-0.74335395702249196237
0.29722782865852093170
-0.57722701903295869919
0.76244104966562931125
0.26176126455185361186
0.31669361883098556820
0.66950978379608971913
0.25681021265398057407
0.65845347355287697777
0.21881819757994133702
0.40075863995610094825
0.28771363805663946467
0.15974667324643526678
0.35666302778150388297
0.17953538955993972315
0.57818454517482498201
0.27579236743479140781
0.70391919322923646174
0.22947300695361483314
0.21913198309004139341
0.22950266748023837038
0.44261086144116262853
0.19454925226609001698
0.37916805678718046302
0.46745211724729623937
0.25262597638876232997
0.27404029520590328373
0.39274795326902006698
0.18067248412134120916
0.51485393746935625980
0.24463928067816817502
0.36944449571747772776
1.36454598331949683576
0.31607650413814730728
0.40668155016843238192
-0.2005062997341156
0.1691138893365860
0.0743890553712845
0.3253691196441650
-0.6225916147232056
0.0874144360423088
-0.1351150721311569
-0.0736008509993553
0.1017102375626564
-0.1251976341009140
-0.0752786695957184
-0.0607791878283024
0.3464125990867615
-0.0421097353100777
-0.3391308784484863
-0.2871971428394318
-0.3766188919544220
-0.0625263974070549
0.2052949219942093
-0.3875845372676849
-0.0255244746804237
0.1326153874397278
0.2133684307336807
-0.0761310383677483
-0.1724634468555450
0.0931409671902657
-0.3757711648941040
-0.1285136938095093
-0.1040777564048767
0.0253963582217693
0.2231485545635223
0.0134004969149828
0.1420983523130417
0.0551496893167496
-0.0400972925126553
-0.0499119684100151
0.2874049842357635
0.1326729953289032
0.1463739275932312
-0.2843681573867798
0.2226013541221619
0.2829096019268036
-0.0813540220260620
0.1968364119529724
-0.1561552733182907
-0.3831864297389984
0.4704175591468811
-0.0622453615069389
0.1519256979227066
-0.3029298484325409
0.3433430790901184
-0.3223564028739929
0.1766524165868759
-0.5907943248748779
0.3215118646621704
-0.3725720345973969
0.0632272735238075
-0.1116267070174217
-0.1820550113916397
-0.3328959941864014
0.2304469347000122
0.3287561535835266
0.1400266587734222
0.2027035802602768
0.0002245878276881
0.0048391944728792
0.0000695227427059
0.0004205477889627
0.0024054618552327
0.0001839098258642
0.0010739358840510
-0.0003640562063083
-0.0004081442020833
0.0004487736150622
-0.0034115025773644
0.0005187792703509
0.0000356450109393
0.0015000452985987
0.0000536063562322
0.0007441818015650
-0.0005676486180164
0.0004932761657983
0.0005096759996377
-0.0013194833882153
0.0020111838821322
-0.0013188433367759
-0.0019964592065662
-0.0005873345071450
0.0008835010230541
-0.0001248863991350
-0.0002798071072903
0.0010324749164283
0.0001096947162296
0.0005778673803434
0.0003951473045163
0.0007613296620548
0.0006339675164782
-0.0001033949229168
0.0020265784114599
-0.0004747885686811
0.0005555144161917
0.0005195910343900
0.0003685906121973
0.0000137268270919
0.0000329993526975
-0.0010894529987127
-0.0003667451092042
0.0019241032423452
-0.0010080094216391
-0.0000795901942183
0.0013384994817898
0.0002691958507057
0.0005776561447419
-0.0003050589584745
0.0007615042268299
-0.0010630002943799
0.0007265202584676
-0.0002463881683070
-0.0018788110464811
-0.0010518193012103
-0.0013734420062974
0.0025708486791700
0.0023393665906042
0.0003467606438790
0.0016857779119164
0.0001661301648710
-0.0002692262642086
0.0010967298876494
0.0000377609685529
0.0000093372882475
-0.0000256960956904
-0.0000856294791447
0.0001573158369865
-0.0000545823422726
-0.0000530412362423
-0.0000593064505665
0.0000549282158318
-0.0001446822425351
0.0001521029917058
-0.0001273039233638
-0.0000284932775685
-0.0000535939943802
0.0001207347522723
0.0001453917939216
0.0000904005792108
0.0000385466919397
-0.0003093694103882
0.0001408983371221
0.0001023194781737
0.0000758003880037
0.0002334953460377
0.0000774193322286
0.0000615488534095
-0.0000742106203688
0.0000543662790733
0.0002483157149982
0.0000178181999217
-0.0000189754719031
0.0000567291535845
0.0001501321385149
0.0000465966695629
-0.0001948294666363
-0.0000949263267103
0.0000412646913901
0.0000763817879488
0.0000959044846240
0.0000115482107503
0.0000331545925292
-0.0000433373679698
0.0000127034372781
0.0000908549045562
0.0001040383940563
-0.0000149881034304
-0.0000723996199667
0.0000372506910935
0.0000536278093932
-0.0000769780308474
0.0002275992446812
-0.0000295578811347
0.0000598275801167
0.0000045178708206
-0.0000349592228304
0.0000276079190371
0.0000574995392526
0.0000980008626357
0.0001547552819829
0.0001186457884614
-0.0001824415667215
0.0000837437619339
0.0000633276431472
0.0000425697689934
-0.0001531332090963
-0.0000537024716323
0.0001532605965622
-0.0001064997413778
-0.0000309495662805
-0.0000578382605454
0.0000051566230468
0.0001358968438581
-0.0001362606417388
0.0001821440237109
-0.0000393065056414
0.0001809425448300
0.0000110753990157
0.0000680603116052
-0.0001771863753675
0.0000469861370220
0.0000699963566149
0.0000942121114349
0.0000384104096156
-0.0000909244918148
-0.0000274630820059
0.0000644921674393
-0.0000645623367745
0.0000518120214110
0.0001045785684255
0.0000444453071395
0.0000228343760682
-0.0000832113000797
-0.0000139059884532
0.0000509153651365
0.0000301151758322
0.0000779437250458
-0.0001139699670603
0.0001493651361670
0.0000986753875623
-0.0000682964309817
0.0000029185105177
-0.0000106243587652
0.0000189581623999
-0.0000501912982145
-0.0000190373139048
-0.0000400044955313
0.0000393641930714
-0.0000861659718794
0.0000603112785029
-0.0000406346916861
-0.0000202295614145
-0.0000847362462082
0.0001604478311492
0.0000304133754980
0.0000651812370052
-0.0000334433898388
0.0000875661353348
-0.0000542129928363
-0.0000083958484538
-0.0000832352961879
0.0000094226888905
0.0000838684863993
0.0000507418117195
0.0000181638806680
-0.0000076280466601
0.0000967484447756
-0.0000907040448510
-0.0000112810585051
0.0000485471609863
-3.49196649546320569968
-0.08304300046002416336
0.55892627189411392408
1.01248173089261817026
0.69817051060330515000
1.42346508865441601088
-2.32060626611513276529
1.17954491305408026847
1.37516636520148849421
1.07051090115335689745
-2.27861164312070618720
1.81963605009233031495
1.19774213174157218020
-0.11607309286039796392
0.94968513807439802754
0.04670175474816209982
0.35938218580734981877
-1.44224602400326640250
0.05259870202484911994
-0.01234411460762022128
2.80188607228667407867
-0.61145740411058713271
1.94568694431662359001
-1.92720572768147935250
0.30866819249663807190
-5.44213263746055808667
2.48948139996836514953
1.74703602977824035136
0.83873462891884165149
0.73982648666388661773
-1.69377603119499209328
-1.67206339407382387208
1.47384745538395378617
1.10161659115897725414
0.53422067271732498472
-0.61164321401160470781
-0.26262542832713853258
-1.14773865470392566479
-1.86814112442835900119
-0.82283969110781240985
-2.69510525054940641709
-0.03946757108006811177
0.76140383109745757295
-1.14653063921176645579
0.72743549431118315063
-1.02536189930839660711
-0.02491852234517712150
2.58603441365029107502
-0.86948670816982032150
1.69759364626209197091
0.29212175645928695200
0.13878246362248292112
1.70783520797822196968
-1.61528097996539798942
-0.83457881546122569816
0.11186636347775136269
-1.23188158790383583963
-1.16487141106403213620
-4.24693692003825695735
1.57938239921024048407
-0.81647271966581347336
0.44877547260487227199
1.96240090559905988599
-0.15539710736906400812
0.23215439764638240439
0.14820208700541573354
0.19720709460547691805
0.22265438869444278969
0.22143662610046091488
0.20773931500638273540
0.19680170917434494648
0.18681521814780438495
0.13626560764811507243
0.14039271487188353937
0.18324102087048529941
0.17721264526659907812
0.23280534974050312580
0.11182781692255007455
0.15759309444162059033
0.19055515027061364908
0.14166123350034778849
0.14551919392511025730
0.25585657906246972448
0.23508137862691924624
0.14285060715054662128
0.16674058894862472946
0.17792634330347356642
0.18510039505688777317
0.16552485846530923252
0.17045699789049631456
0.19510712056451787189
0.17367101599953968516
0.12371654615423402501
0.14273303722197719368
0.20666344644847167711
0.11263565971285127709
0.11829435729175688530
0.18771616801490112469
0.11016120218190657287
0.18378076125761869108
0.21359691780082848411
0.20222604410881186987
0.18536522178757175450
0.09049971679405792446
0.18409605714958504619
0.23241472298493059956
0.10313138664718553283
0.18535966021500033252
0.25243140256870250093
0.23335722328990168850
0.14425866234215045658
0.21407771474559009195
0.10792104544404342026
0.19502870900601756987
0.13016656860863767831
0.16608070397941465668
0.13238824323258030491
0.26626692420684400231
0.17136068564495801625
0.13382546449166296543
0.16907239429829051813
0.09850768551164354458
0.29712601563601404031
0.25039250256298101194
0.14442147849326328335
0.21904249399713837665
0.22232110325321455258
0.13667436481914491120
0.3008100390434265
0.2390984296798706
-0.2026232630014420
0.0644725710153580
-0.2057620882987976
-0.0750758871436119
0.1839071661233902
0.2185718864202499
0.6677879095077515
-0.0110049638897181
-0.0611792802810669
0.6173568964004517
-0.0120477490127087
-0.5071066617965698
0.1155920401215553
-0.1630055010318756
-0.6555016636848450
-0.4251163303852081
0.0109448060393333
-0.1756296753883362
-0.1202459260821342
-0.4381517171859741
-0.5306593179702759
-0.2893720865249634
0.3338370919227600
-0.4554288685321808
-0.5976964235305786
0.7798387408256531
-0.2700254619121552
-0.7272841930389404
-0.2923293411731720
-0.2403818964958191
-0.8511361479759216
-0.0336562469601631
-0.0694259926676750
-0.1791917532682419
-0.0461940839886665
0.1636566221714020
0.1953765451908112
0.4751515090465546
-0.0562917403876781
-0.9565583467483521
-0.2340415567159653
-0.1950459033250809
-0.0763134881854057
-0.0978129953145981
-0.3802518546581268
0.1461500972509384
-0.1339092850685120
0.2951379418373108
0.3108849823474884
-0.2841058969497681
0.1985075622797012
0.1223492100834846
0.0263443924486637
0.2405544966459274
-0.1876831650733948
-0.2379276901483536
-0.2984721362590790
-0.1569336354732513
-0.1139862686395645
-0.1448891609907150
-0.0048976223915815
-0.2174210697412491
-0.4494080245494843
-0.3845553100109100
-0.1177967265248299
0.4394663870334625
-0.7733941674232483
0.2865487039089203
0.1724517494440079
0.0671790540218353
-0.7732731699943542
-0.4115878343582153
0.1696030646562576
0.2374875694513321
-0.0077782459557056
0.0609029941260815
0.1239515766501427
-0.5067940354347229
0.0223562549799681
0.0584589019417763
-0.1098374277353287
0.0144946742802858
0.2342675626277924
-0.1685068756341934
0.4571308791637421
0.2105687260627747
0.0318412631750107
-0.4070707857608795
-0.0718638375401497
-0.0862848684191704
-0.5690211057662964
-0.2441382557153702
0.5139459967613220
-0.7262384295463562
-0.1643375605344772
-0.0649035871028900
-0.6557843685150146
0.3200192451477051
-0.0835372954607010
-0.6712521910667419
-0.6342942118644714
-0.1958033144474030
0.4654508233070374
-0.3933866024017334
-0.2783728837966919
-0.0997693464159966
-0.4097305536270142
-0.2168998271226883
-0.6570020914077759
0.4197918474674225
-0.1965220123529434
-0.1352009922266006
-0.2667683959007263
-0.0995055139064789
0.1409478485584259
-0.6077839732170105
-0.1541073024272919
0.1426044255495071
0.1060866191983223
-0.3045784533023834
-0.3102032244205475
0.5596388578414917
-0.5342977643013000
-0.4528314769268036
-0.0634059160947800
0.3734533488750458
0.0000377609685529
0.0000093372882475
-0.0000256960956904
-0.0000856294791447
0.0001573158369865
-0.0000545823422726
-0.0000530412362423
-0.0000593064505665
0.0000549282158318
-0.0001446822425351
0.0001521029917058
-0.0001273039233638
-0.0000284932775685
-0.0000535939943802
0.0001207347522723
0.0001453917939216
0.0000904005792108
0.0000385466919397
-0.0003093694103882
0.0001408983371221
0.0001023194781737
0.0000758003880037
0.0002334953460377
0.0000774193322286
0.0000615488534095
-0.0000742106203688
0.0000543662790733
0.0002483157149982
0.0000178181999217
-0.0000189754719031
0.0000567291535845
0.0001501321385149
0.0000465966695629
-0.0001948294666363
-0.0000949263267103
0.0000412646913901
0.0000763817879488
0.0000959044846240
0.0000115482107503
0.0000331545925292
-0.0000433373679698
0.0000127034372781
0.0000908549045562
0.0001040383940563
-0.0000149881034304
-0.0000723996199667
0.0000372506910935
0.0000536278093932
-0.0000769780308474
0.0002275992446812
-0.0000295578811347
0.0000598275801167
0.0000045178708206
-0.0000349592228304
0.0000276079190371
0.0000574995392526
0.0000980008626357
0.0001547552819829
0.0001186457884614
-0.0001824415667215
0.0000837437619339
0.0000633276431472
0.0000425697689934
-0.0001531332090963
-0.0000537024716323
0.0001532605965622
-0.0001064997413778
-0.0000309495662805
-0.0000578382605454
0.0000051566230468
0.0001358968438581
-0.0001362606417388
0.0001821440237109
-0.0000393065056414
0.0001809425448300
0.0000110753990157
0.0000680603116052
-0.0001771863753675
0.0000469861370220
0.0000699963566149
0.0000942121114349
0.0000384104096156
-0.0000909244918148
-0.0000274630820059
0.0000644921674393
-0.0000645623367745
0.0000518120214110
0.0001045785684255
0.0000444453071395
0.0000228343760682
-0.0000832113000797
-0.0000139059884532
0.0000509153651365
0.0000301151758322
0.0000779437250458
-0.0001139699670603
0.0001493651361670
0.0000986753875623
-0.0000682964309817
0.0000029185105177
-0.0000106243587652
0.0000189581623999
-0.0000501912982145
-0.0000190373139048
-0.0000400044955313
0.0000393641930714
-0.0000861659718794
0.0000603112785029
-0.0000406346916861
-0.0000202295614145
-0.0000847362462082
0.0001604478311492
0.0000304133754980
0.0000651812370052
-0.0000334433898388
0.0000875661353348
-0.0000542129928363
-0.0000083958484538
-0.0000832352961879
0.0000094226888905
0.0000838684863993
0.0000507418117195
0.0000181638806680
-0.0000076280466601
0.0000967484447756
-0.0000907040448510
-0.0000112810585051
0.0000485471609863
-0.0000072173388617
0.0000074053800745
-0.0000065074500526
0.0000026604366212
0.0000000889473313
0.0000096090061561
-0.0000068328131420
-0.0000209246991290
-0.0000236116175074
-0.0000109084940050
0.0000061143596213
-0.0000150799933181
-0.0000004673399872
0.0000006463296813
0.0000183170177479
-0.0000079422425188
-0.0000037832921862
-0.0000077181657616
-0.0000008373640412
0.0000221403515752
0.0000169731902133
0.0000018089974674
-0.0000133428884510
-0.0000083716477093
-0.0000073199066719
-0.0000001815343751
0.0000105973167592
0.0000176310913957
0.0000100906363514
0.0000020688864879
0.0000082947644842
0.0000115302145787
0.0000251093351835
0.0000014727946791
-0.0000152715911099
0.0000104178852780
0.0000245524661295
0.0000053195362852
-0.0000027437458812
0.0000062213707679
-0.0000012615623746
0.0000125108117572
0.0000148133603943
-0.0000185477420018
0.0000084984048954
0.0000013581359326
-0.0000011031586382
0.0000045416768444
0.0000074928207141
0.0000141241152960
-0.0000036472506508
0.0000081899688666
0.0000062128033278
-0.0000078748098531
-0.0000083614240793
0.0000103294369183
0.0000075998682405
-0.0000077889881140
-0.0000007280279988
-0.0000008504645734
0.0000020567306365
0.0000102417270682
-0.0000100609040601
-0.0000026744146453
0.0000042737779040
-0.0000217555061681
0.0000021196622129
-0.0000138393970701
0.0000033049147987
-0.0000075106231634
0.0000046428681344
0.0000118802699944
-0.0000102160465758
-0.0000001634022198
0.0000370223824575
-0.0000021806495170
-0.0000012185353171
0.0000030974283618
-0.0000013476128515
-0.0000193993819266
-0.0000066867150963
-0.0000003832269329
0.0000096276917247
0.0000046700138228
-0.0000050580160860
0.0000003485183413
0.0000114356007543
-0.0000018982286747
-0.0000182882467925
0.0000031869089980
0.0000023569966743
-0.0000128452147692
-0.0000047496046136
0.0000028067115636
-0.0000080397658166
0.0000001386295025
-0.0000205553005799
0.0000229426805163
-0.0000061460718825
0.0000015032112515
-0.0000008722005305
0.0000119013666335
0.0000018438130382
0.0000003571360025
-0.0000189084639715
0.0000121475595734
0.0000068745675890
0.0000037648317175
-0.0000035279804251
-0.0000042889259930
-0.0000055202731346
0.0000034486190543
-0.0000020227705591
-0.0000102896474345
0.0000004972866350
0.0000191132749023
0.0000003195323188
-0.0000050684061534
0.0000062234480538
0.0000024122041395
-0.0000022978733796
-0.0000035549544464
0.0000043372624532
-0.0000153029832290
-0.0000002019087191
0.0000107405230665
-0.0000017944799993
-0.0000163557178894
0.0000066488328230
0.0000052974196478
-0.0000270199252554
0.0000005748640319
0.0000168604110513
0.0000017245970412
0.0000029248326427
0.0000149721927301
0.0000043835925680
-0.0000121854209283
-0.0000048662391237
0.0000104331202238
-0.0000210577218240
-0.0000006562219141
-0.0000172642830876
0.0000023757606868
-0.0000159477258421
-0.0000122256869872
-0.0000021091989311
0.0000064172900238
-0.0000063719367063
-0.0000032936193293
0.0000049348645916
0.0000023116233479
0.0000285867736238
-0.0000134737329063
-0.0000067500595833
-0.0000021942157673
0.0000038421148929
-0.0000018596477958
0.0000022477654511
-0.0000019125563995
-0.0000084599860202
0.0000046527297854
-0.0000157729082275
0.0000013340946907
0.0000035728776311
-0.0000244412985921
0.0000096397407106
0.0000129569098135
-0.0000032030031889
0.0000030354503906
0.0000037497839003
0.0000159224382514
-0.0000089956547527
0.0000114075646707
0.0000020129643872
0.0000052363852774
-0.0000125603082779
-0.0000024416447104
-0.0000060659390329
-0.0000005476971978
0.0000079000137703
-0.0000129441095851
0.0000016273157826
0.0000001519051551
0.0000055433065427
0.0000111187500806
-0.0000206346394407
0.0000110922710519
-0.0000091360943770
0.0000013989565559
0.0000011804133919
0.0000013763875586
0.0000059561111811
-0.0000095721434263
-0.0000067971477620
-0.0000165063484019
-0.0000058270293266
0.0000158613620442
-0.0000053253397709
0.0000048855117711
-0.0000035293348901
-0.0000019752312710
0.0000021742291665
-0.0000435314686911
-0.0000013863158301
-0.0000031797953852
-0.0000054946176533
-0.0000096833819043
-0.0000137959432323
-0.0000020583452169
0.0000063675056481
0.0000017027308559
-0.0000003997795375
-0.0000216473963519
-0.0000120130789583
-0.0000070127875915
-0.0000119923570310
-0.0000050850976550
-0.0000014235059780
0.0000036190658648
-0.0000023538025289
0.0000024998284971
0.0000026177042400
-0.0000043789136726
-0.0000103874790511
0.0000055889399846
-0.0000144719178934
0.0000041467574192
0.0000072541174632
-0.0000134828151204
-0.0000000935768441
0.0000107722089524
0.0000022285419163
-0.0000039130932237
-0.0000005402371244
0.0000003788178162
0.0000026478769541
-0.0000108715785245
-0.0000127272296595
-0.0000093152530098
0.0000076604164860
0.0000086549289335
-0.0000024777395993
-0.0000002034650635
0.0000021274995561
0.0000156049482030
0.0000074669023888
0.0000069708253250
-0.0000024885882794
0.0000124908237922
0.0000111603212645
-0.0000184223172255
-0.0000061661521613
0.0000016055225842
-0.0000277451763395
0.0000044794255700
3.47804701252862491501
5.30623426785099194802
-2.66622885048383784223
2.78126293052791817573
1.17271072670021725415
-1.09328943954544066663
-1.41548384950703942664
1.84337023124037990840
0.87058912903986540588
1.51734623636525078894
1.40790965962706549064
3.61266107738919473036
1.90430593973747663838
0.14111365190276969894
0.11214811465402030333
-0.63562328599194417578
6.53239743944919304397
-0.42542746020024035936
-0.65826516921425537454
-0.13713270580578182378
0.01884080275832175633
0.35840043155429979205
0.57025343513778126159
-0.93178526338973099996
-1.24403787966222023620
-0.35113425579045809410
-0.29599317737131702888
1.50289800172835197323
0.87905765179770178896
-1.06175534947797567398
1.30518505892693115200
-2.14636755692436587140
1.53737421965803311430
-2.47039710659951827765
1.72917964731692808122
-1.88390536007200948276
1.73290610511990195164
-0.72861561040450473214
1.05368386156050952707
1.72985085621908174502
0.50750314903158078028
0.81578692588990375789
-1.53961605537441292846
-0.08894042584136396812
-1.95079499670861489236
-2.36932939192015767915
-0.88843127688966416766
-0.42960777082870571508
-1.49926564738365120100
2.56110471861842992070
-1.66375863438050064502
0.05286066543887765756
0.46878040941223397819
0.31503342266997480525
-1.90368880583224919789
0.79317481431730074704
0.80488076662847651832
-0.34853469884800836187
0.94361282045604499835
1.04594002272045383251
-1.19502070655641423613
0.15813328900988132819
-0.38615826924967677769
1.67445479517838746730
0.97635790210600736927
0.02144040138169558962
0.29778034496375122009
0.11265165794175419078
-3.03179489644249544611
0.88014837893828312687
0.93585272556292098400
-0.08494125895153642469
2.88785860660127013944
-1.21013782795992597130
-0.46081072847738346887
-0.87452972790798999547
1.55322011966486939194
3.88466834729649868052
1.04680212497008784389
-1.81982396666397239215
-0.14626557166737225169
-1.53197827413766041182
-1.53499495123120954787
-1.91372117254630547123
-1.12687581605602704649
-0.15854423659774102839
0.76736386138971690585
1.15664540353419820207
0.41819156114329159024
-2.26741024266506974172
-1.81596714520525637226
0.44171005702531407344
-0.45274064082169190870
-2.98932828208233125622
0.72568912175816668864
-1.00121183942356406504
1.05773732931143649161
2.26470689683008696846
5.35478744887239344052
0.40656139308308697489
-1.17044700071832763477
-0.98363220348311131147
-0.66210905314331758298
2.03558533028328580983
-2.20031461323608201752
-2.81184796186966901033
3.38260202003309462526
-1.05849291191186378747
-0.79308250753552445023
-1.48748912958180579125
-4.78008726546965867499
-0.43925191169165000993
3.14104225237033896079
-1.85995538065842680453
-2.94145590804994228051
-2.65443085808528955738
0.22103858693466454932
1.83019461562146723566
-1.23087124915727730290
-2.76868858156076136368
0.40453927401456479807
-0.66158699162848255693
-1.06050596030967358985
0.23807133981235972797
-3.37351888418674272785
1.01829594839881831803
0.89825369934003251871
-0.65009419951259450610
0.13217701942089052358
0.09425960563506206868
0.11009989986814033847
0.14010594829507524994
0.12275272369922055060
0.09078178184830519581
0.08947332751003903017
0.06179476890467326677
0.15174355649956897119
0.10175733768523925749
0.09247648851045833784
0.10451871919511789011
0.13140428580897900446
0.09177710787724482899
0.11444915209096029329
0.14098584367368155457
0.09938237540773021961
0.10893322548404006656
0.13123972078623583060
0.12846536839317790335
0.12587022807021072679
0.13055252560537783380
0.15073046963731992487
0.13875854092616904389
0.10935269842716988098
0.11512661549735175859
0.09697683151675227931
0.09417609053887417148
0.10072698436678650946
0.06252648058559343025
0.09691485277977453239
0.13615263851351097624
0.10701955576639853029
0.11999319109518917503
0.14028045982757986199
0.10133811087075038360
0.09120549704785008149
0.12930986566071797639
0.12126743332253807350
0.12454484172896201910
0.07985012905888196066
0.11550346351357944352
0.12515719886095413860
0.12444324271191190001
0.10026156166648646229
0.13844748371236847984
0.05343800715212043695
0.12098658699282223428
0.12373894211472398486
0.11739124146394457060
0.09654290823358674389
0.11218547408967688428
0.10747354928388272444
0.13809406903337120842
0.08065222481690613454
0.13611176594623228264
0.13061574800613470759
0.09234823069649132632
0.09124525457482857149
0.04991154397419256261
0.10596936306206598821
0.14159992164450879715
0.10307608864169455487
0.10293736489656241107
0.11227232359599013944
0.11994376218971022907
0.10415974372317655938
0.09422022273649180435
0.07494442503517535770
0.10670429222460581231
0.10420730029253201521
0.11734691315035386538
0.09944106398475413555
0.13963619909258731533
0.14281509340574777278
0.11150242304593871445
0.11131656857059503418
0.11339713420394599563
0.13130206839644240069
0.13774427128223931671
0.09363399263559489538
0.09328135132147416519
0.09959288333606110266
0.13669513216801754130
0.11875373807570907547
0.11032050952614706751
0.13791802041343501073
0.07463043534625554698
0.09184596260271384038
0.11725284006683250881
0.08245132109147973454
0.09100544244117501902
0.09106899180729362275
0.10669428798443471307
0.14811763809590999807
0.11096449135735497737
0.12192788865766075734
0.09664364410699574637
0.10903548569996290851
0.12194012540873741535
0.13081875252297392453
0.09171356881082333434
0.09177728612002804265
0.09037534863005386443
0.08599535939162382403
0.09846689303874914256
0.13322969102484219506
0.08253205206538932748
0.10135687527234822636
0.10130752206863351261
0.11661691051778624861
0.11268191471749887389
0.10060839887955504157
0.12231206154446995493
0.08543603950759590115
0.12670211410735099378
0.11127288600303390786
0.10606343023799118253
0.11360321757927011044
0.12546822145056571451
0.10066728780428217671
0.12428380416402259878
0.10637081275610245357
0.12064367933820084600
0.13587678593472543587
0.11707643959134912681
0.10402351515878469068
0.11715733325657670671
-0.3011447787284851
-0.1182020679116249
0.2758316099643707
-0.2425989210605621
-0.3074067234992981
-0.3720566034317017
0.0501596182584763
-0.1746423840522766
-0.0244247689843178
-0.0172356329858303
-0.2094169706106186
-0.0490968525409698
-0.2937236428260803
-0.1963980197906494
-0.3436242640018463
0.0034740429837257
0.5454089045524597
-0.3401503264904022
0.2479135245084763
-0.2915045917034149
0.0217024795711040
0.0115192998200655
-0.3008743524551392
-0.1337613463401794
-0.1752776205539703
-0.0842355340719223
-0.1504043936729431
-0.1247601956129074
-0.0406989939510822
-0.2643439471721649
0.1449269652366638
0.0205112751573324
-0.0109530398622155
-0.3789421319961548
-0.2515708208084106
-0.1510898321866989
-0.1088066250085831
-0.1378957629203796
-0.2349047213792801
-0.4238812625408173
-0.2465860545635223
-0.2053991258144379
-0.3070942163467407
-0.1104084029793739
-0.3360569477081299
0.0139981629326940
-0.2676904797554016
-0.0911149829626083
-0.1860944181680679
-0.1592520773410797
0.2094445079565048
-0.2785733640193939
-0.1447665691375732
0.4339947402477264
-0.1772734671831131
0.3128864765167236
-0.4750669598579407
-0.1900376528501511
-0.1991178244352341
-0.3660748004913330
0.2695125341415405
-0.3847711384296417
-0.5597307085990906
-0.2437817305326462
-0.5000643730163574
-0.4072830379009247
-0.5621300339698792
-0.2535384297370911
-0.0474898330867290
-0.3198373317718506
-0.0929639860987663
-0.1738925874233246
-0.2541030049324036
-0.0814921930432320
-0.3150804638862610
-0.3651499450206757
0.4668006896972656
-0.2026785612106323
0.5076541900634766
-0.1079871132969856
-0.2464709430932999
-0.4507481455802917
-0.2625614404678345
-0.2780493497848511
-0.3216061294078827
-0.5042245984077454
-0.0195203460752964
0.0659781172871590
-0.2276759445667267
-0.0791047662496567
-0.0421730726957321
-0.1705462336540222
-0.4606437385082245
-0.0806488841772079
-0.3456180095672607
-0.4217604100704193
-0.0639253929257393
-0.3703433275222778
-0.0774736031889915
0.0010272002546117
-0.2079473733901978
-0.1671712398529053
-0.4636088311672211
-0.1294510960578918
-0.2805584669113159
-0.3946491479873657
-0.4335920810699463
0.2840963304042816
0.0805533081293106
0.0135186016559601
0.1437885463237762
-0.2749498188495636
-0.0099985860288143
-0.3162908256053925
-0.4933573901653290
-0.4575709402561188
-0.3484001457691193
-0.2034152597188950
-0.2079207748174667
-0.2755432426929474
-0.3379521071910858
-0.1028996929526329
-0.1838835030794144
0.1342259049415588
-0.2934930622577667
-0.4330500662326813
-0.2498284578323364
0.0779065042734146
0.6880974769592285
-0.1718920916318893
-0.3778060078620911
-0.1436571329832077
-0.2734509110450745
-0.0548349320888519
-0.0202089697122574
-0.0459495671093464
-0.3124585449695587
-0.0660176649689674
-0.1375210434198380
-0.3041943013668060
-0.1421409398317337
0.0969126969575882
-0.0342082008719444
0.1756701916456223
-0.2086597979068756
-0.5550909638404846
-0.3755048215389252
-0.1521193236112595
-0.2886279821395874
-0.1780310422182083
-0.1798772215843201
-0.3997392952442169
0.0957392975687981
-0.3026953935623169
-0.3315812647342682
-0.1548986285924911
-0.4984523355960846
-0.1749590188264847
-0.2852956652641296
-0.1630123555660248
-0.3628871440887451
-0.1832655966281891
-0.4333303570747375
-0.1664512455463409
-0.1678069829940796
-0.3991843760013580
-0.2201010286808014
-0.4374299049377441
-0.0746768116950989
-0.2170512378215790
-0.0912585183978081
-0.2037638127803802
0.0525072701275349
-0.2387905716896057
-0.2092085182666779
-0.5595012307167053
-0.2698857486248016
-0.2688485682010651
-0.1725541502237320
-0.1174821406602859
-0.3811490535736084
0.2275662422180176
0.2889989614486694
-0.3104914426803589
0.4459531307220459
-0.4593235850334167
-0.3873209655284882
-0.2113887518644333
-0.0588248185813427
-0.4111824929714203
-0.0639277398586273
0.0245945639908314
-0.1027497127652168
-0.1720917373895645
-0.1237265616655350
-0.2585060894489288
0.5912925004959106
-0.4524590671062469
0.1110457777976990
-0.0849927067756653
-0.2382244765758514
-0.3929710388183594
-0.1394475996494293
-0.2542225420475006
0.3197749257087708
-0.0595185980200768
0.7015086412429810
-0.1456105560064316
-0.1564154773950577
-0.3563245832920074
-0.3447604179382324
-0.1606939435005188
-0.1634485572576523
-0.4432898163795471
0.4363376200199127
-0.0453377477824688
0.4093151390552521
-0.2987178564071655
-0.3718421459197998
0.0033990216907114
-0.3029342591762543
-0.1073172613978386
-0.4066241085529327
0.1864153146743774
-0.5005032420158386
-0.2531698346138000
-0.0944109261035919
-0.2336744815111160
-0.1503603905439377
-0.1810429692268372
-0.0376798026263714
-0.2571597099304199
-0.1114828959107399
0.0021570362150669
-0.0594524927437305
0.1948478966951370
-0.1835359930992126
0.2733949124813080
-0.1493209749460220
-0.3652035295963287
-0.1842899024486542
0.1961690336465836
-0.3723708987236023
-0.3195331096649170
-0.1932880282402039
-0.2477344125509262
0.1190504729747772
-0.3090333640575409
0.0993037745356560
-0.2325812578201294
-0.1417618393898010
-0.3552806079387665
-0.0756982415914536
-0.4788547158241272
-0.1304350644350052
-0.1886298805475235
-0.0000072173388617
0.0000074053800745
-0.0000065074500526
0.0000026604366212
0.0000000889473313
0.0000096090061561
-0.0000068328131420
-0.0000209246991290
-0.0000236116175074
-0.0000109084940050
0.0000061143596213
-0.0000150799933181
-0.0000004673399872
0.0000006463296813
0.0000183170177479
-0.0000079422425188
-0.0000037832921862
-0.0000077181657616
-0.0000008373640412
0.0000221403515752
0.0000169731902133
0.0000018089974674
-0.0000133428884510
-0.0000083716477093
-0.0000073199066719
-0.0000001815343751
0.0000105973167592
0.0000176310913957
0.0000100906363514
0.0000020688864879
0.0000082947644842
0.0000115302145787
0.0000251093351835
0.0000014727946791
-0.0000152715911099
0.0000104178852780
0.0000245524661295
0.0000053195362852
-0.0000027437458812
0.0000062213707679
-0.0000012615623746
0.0000125108117572
0.0000148133603943
-0.0000185477420018
0.0000084984048954
0.0000013581359326
-0.0000011031586382
0.0000045416768444
0.0000074928207141
0.0000141241152960
-0.0000036472506508
0.0000081899688666
0.0000062128033278
-0.0000078748098531
-0.0000083614240793
0.0000103294369183
0.0000075998682405
-0.0000077889881140
-0.0000007280279988
-0.0000008504645734
0.0000020567306365
0.0000102417270682
-0.0000100609040601
-0.0000026744146453
0.0000042737779040
-0.0000217555061681
0.0000021196622129
-0.0000138393970701
0.0000033049147987
-0.0000075106231634
0.0000046428681344
0.0000118802699944
-0.0000102160465758
-0.0000001634022198
0.0000370223824575
-0.0000021806495170
-0.0000012185353171
0.0000030974283618
-0.0000013476128515
-0.0000193993819266
-0.0000066867150963
-0.0000003832269329
0.0000096276917247
0.0000046700138228
-0.0000050580160860
0.0000003485183413
0.0000114356007543
-0.0000018982286747
-0.0000182882467925
0.0000031869089980
0.0000023569966743
-0.0000128452147692
-0.0000047496046136
0.0000028067115636
-0.0000080397658166
0.0000001386295025
-0.0000205553005799
0.0000229426805163
-0.0000061460718825
0.0000015032112515
-0.0000008722005305
0.0000119013666335
0.0000018438130382
0.0000003571360025
-0.0000189084639715
0.0000121475595734
0.0000068745675890
0.0000037648317175
-0.0000035279804251
-0.0000042889259930
-0.0000055202731346
0.0000034486190543
-0.0000020227705591
-0.0000102896474345
0.0000004972866350
0.0000191132749023
0.0000003195323188
-0.0000050684061534
0.0000062234480538
0.0000024122041395
-0.0000022978733796
-0.0000035549544464
0.0000043372624532
-0.0000153029832290
-0.0000002019087191
0.0000107405230665
-0.0000017944799993
-0.0000163557178894
0.0000066488328230
0.0000052974196478
-0.0000270199252554
0.0000005748640319
0.0000168604110513
0.0000017245970412
0.0000029248326427
0.0000149721927301
0.0000043835925680
-0.0000121854209283
-0.0000048662391237
0.0000104331202238
-0.0000210577218240
-0.0000006562219141
-0.0000172642830876
0.0000023757606868
-0.0000159477258421
-0.0000122256869872
-0.0000021091989311
0.0000064172900238
-0.0000063719367063
-0.0000032936193293
0.0000049348645916
0.0000023116233479
0.0000285867736238
-0.0000134737329063
-0.0000067500595833
-0.0000021942157673
0.0000038421148929
-0.0000018596477958
0.0000022477654511
-0.0000019125563995
-0.0000084599860202
0.0000046527297854
-0.0000157729082275
0.0000013340946907
0.0000035728776311
-0.0000244412985921
0.0000096397407106
0.0000129569098135
-0.0000032030031889
0.0000030354503906
0.0000037497839003
0.0000159224382514
-0.0000089956547527
0.0000114075646707
0.0000020129643872
0.0000052363852774
-0.0000125603082779
-0.0000024416447104
-0.0000060659390329
-0.0000005476971978
0.0000079000137703
-0.0000129441095851
0.0000016273157826
0.0000001519051551
0.0000055433065427
0.0000111187500806
-0.0000206346394407
0.0000110922710519
-0.0000091360943770
0.0000013989565559
0.0000011804133919
0.0000013763875586
0.0000059561111811
-0.0000095721434263
-0.0000067971477620
-0.0000165063484019
-0.0000058270293266
0.0000158613620442
-0.0000053253397709
0.0000048855117711
-0.0000035293348901
-0.0000019752312710
0.0000021742291665
-0.0000435314686911
-0.0000013863158301
-0.0000031797953852
-0.0000054946176533
-0.0000096833819043
-0.0000137959432323
-0.0000020583452169
0.0000063675056481
0.0000017027308559
-0.0000003997795375
-0.0000216473963519
-0.0000120130789583
-0.0000070127875915
-0.0000119923570310
-0.0000050850976550
-0.0000014235059780
0.0000036190658648
-0.0000023538025289
0.0000024998284971
0.0000026177042400
-0.0000043789136726
-0.0000103874790511
0.0000055889399846
-0.0000144719178934
0.0000041467574192
0.0000072541174632
-0.0000134828151204
-0.0000000935768441
0.0000107722089524
0.0000022285419163
-0.0000039130932237
-0.0000005402371244
0.0000003788178162
0.0000026478769541
-0.0000108715785245
-0.0000127272296595
-0.0000093152530098
0.0000076604164860
0.0000086549289335
-0.0000024777395993
-0.0000002034650635
0.0000021274995561
0.0000156049482030
0.0000074669023888
0.0000069708253250
-0.0000024885882794
0.0000124908237922
0.0000111603212645
-0.0000184223172255
-0.0000061661521613
0.0000016055225842
-0.0000277451763395
0.0000044794255700