-0.8447064757347107
-0.04255855828523636
0.8750879764556885
0.0
0.0
0.0
0.0
0.0
-0.9901903867721558
0.050608765333890915
-0.024917304515838623
0.0
0.0
0.0
0.0
0.0
-0.7171452641487122
0.3016420006752014
-0.6027766466140747
0.0
0.0
0.0
0.0
0.0
-0.3548271358013153
-0.3824509084224701
-0.3827899992465973
0.0
0.0
0.0
0.0
0.0
-0.5409179329872131
-0.8097032904624939
-0.6143476366996765
0.0
0.0
0.0
0.0
0.0
0.7227247953414917
-1.040388822555542
-0.4372898042201996
0.0
0.0
0.0
0.0
0.0
-0.19785158336162567
0.3729788064956665
0.1949562430381775
0.0
0.0
0.0
0.0
0.0
-0.10086521506309509
-0.08791652321815491
0.019941873848438263
0.0
0.0
0.0
0.0
0.0
0.25813060998916626
-0.4779520630836487
-0.4278810918331146
0.0
0.0
0.0
0.0
0.0
0.6055508852005005
-0.30643951892852783
-0.1360151767730713
0.0
0.0
0.0
0.0
0.0
-0.46314990520477295
-0.3485821783542633
0.37170276045799255
0.0
0.0
0.0
0.0
0.0
0.17533491551876068
0.2701781392097473
0.4594621956348419
0.0
0.0
0.0
0.0
0.0
0.5706068873405457
-0.431934118270874
-0.7609433531761169
0.0
0.0
0.0
0.0
0.0
-0.16951414942741394
0.22050316631793976
-0.49762895703315735
0.0
0.0
0.0
0.0
0.0
-0.5979000329971313
-0.48487189412117004
-0.3765972852706909
0.0
0.0
0.0
0.0
0.0
-0.7132237553596497
-0.6889967322349548
-0.09362157434225082
0.0
0.0
0.0
0.0
0.0
0.2067345380783081
-0.1889154314994812
0.7067269086837769
0.0
0.0
0.0
0.0
0.0
-0.19058452546596527
-0.15064120292663574
0.16994552314281464
0.0
0.0
0.0
0.0
0.0
-0.5834580063819885
-0.9133535623550415
-0.5046528577804565
0.0
0.0
0.0
0.0
0.0
0.6199601888656616
1.4450589418411255
0.6084656715393066
0.0
0.0
0.0
0.0
0.0
-0.14725811779499054
-0.4578765034675598
0.32871508598327637
0.0
0.0
0.0
0.0
0.0
0.060524046421051025
0.018296802416443825
-0.18925665318965912
0.0
0.0
0.0
0.0
0.0
-0.0948028638958931
-0.12795324623584747
-0.056614652276039124
0.0
0.0
0.0
0.0
0.0
-0.4042426645755768
0.4721149504184723
-0.1633148044347763
0.0
0.0
0.0
0.0
0.0
0.18799526989459991
-0.19584403932094574
0.3594706058502197
0.0
0.0
0.0
0.0
0.0
0.025981206446886063
-0.10265175253152847
-0.2333011031150818
0.0
0.0
0.0
0.0
0.0
-0.5247507095336914
0.19724717736244202
-0.27617642283439636
0.0
0.0
0.0
0.0
0.0
1.0496809482574463
0.4828372299671173
0.5454761981964111
0.0
0.0
0.0
0.0
0.0
-0.9248987436294556
-0.88972008228302
-0.19223295152187347
0.0
0.0
0.0
0.0
0.0
0.23861412703990936
-1.1420305967330933
0.6630802750587463
0.0
0.0
0.0
0.0
0.0
-0.24268180131912231
-0.8411374092102051
-0.6660003662109375
0.0
0.0
0.0
0.0
0.0
-0.041421111673116684
-0.5240795612335205
-0.6110358834266663
0.0
0.0
0.0
0.0
0.0