-0.10899746417999268
-0.13614876568317413
0.17099794745445251
0.0
0.0
0.0
0.0
0.0
0.04704861342906952
0.11492857336997986
0.14931374788284302
0.0
0.0
0.0
0.0
0.0
0.09781432151794434
0.09033164381980896
-0.12021326273679733
0.0
0.0
0.0
0.0
0.0
0.18076682090759277
0.15850675106048584
0.05958031117916107
0.0
0.0
0.0
0.0
0.0
0.1599210500717163
0.1595664918422699
-0.12539586424827576
0.0
0.0
0.0
0.0
0.0
-0.029966965317726135
-0.12344342470169067
0.13013499975204468
0.0
0.0
0.0
0.0
0.0
0.18617329001426697
0.12855881452560425
0.032784461975097656
0.0
0.0
0.0
0.0
0.0
0.18254989385604858
0.16524359583854675
0.0044989436864852905
0.0
0.0
0.0
0.0
0.0
-0.014222696423530579
-0.03138943016529083
0.11486148834228516
0.0
0.0
0.0
0.0
0.0
0.13296514749526978
0.10510289669036865
-0.017013639211654663
0.0
0.0
0.0
0.0
0.0
0.052349478006362915
-0.14580784738063812
-0.11071442067623138
0.0
0.0
0.0
0.0
0.0
0.12148874998092651
-0.028093308210372925
0.11593851447105408
0.0
0.0
0.0
0.0
0.0
0.002673432230949402
-0.17814259231090546
0.11219516396522522
0.0
0.0
0.0
0.0
0.0
-0.11508255451917648
-0.16528576612472534
0.182249516248703
0.0
0.0
0.0
0.0
0.0
-0.008989319205284119
-0.1335790753364563
-0.00831785798072815
0.0
0.0
0.0
0.0
0.0
-0.12690460681915283
-0.12078245729207993
0.033054620027542114
0.0
0.0
0.0
0.0
0.0
-0.15297630429267883
0.02599009871482849
0.17516323924064636
0.0
0.0
0.0
0.0
0.0
0.09698596596717834
0.1543930470943451
0.1193733811378479
0.0
0.0
0.0
0.0
0.0
-0.1251399666070938
0.06082811951637268
0.021391555666923523
0.0
0.0
0.0
0.0
0.0
-0.05407889187335968
-0.1085025891661644
0.01660972833633423
0.0
0.0
0.0
0.0
0.0
0.154977947473526
0.04395882785320282
-0.13760414719581604
0.0
0.0
0.0
0.0
0.0
-0.18056873977184296
-0.10412248224020004
0.018486827611923218
0.0
0.0
0.0
0.0
0.0
-0.0006776750087738037
-0.15168039500713348
-0.009267285466194153
0.0
0.0
0.0
0.0
0.0
-0.11377514153718948
-0.08951642364263535
-0.006643518805503845
0.0
0.0
0.0
0.0
0.0
0.09392887353897095
0.13558882474899292
0.010482966899871826
0.0
0.0
0.0
0.0
0.0
-0.11685846000909805
-0.18653909862041473
0.0739881694316864
0.0
0.0
0.0
0.0
0.0
0.06425169110298157
0.08594176173210144
0.07919412851333618
0.0
0.0
0.0
0.0
0.0
0.0995892882347107
0.1456952691078186
0.01774623990058899
0.0
0.0
0.0
0.0
0.0
-0.17668284475803375
-0.030783087015151978
-0.030933409929275513
0.0
0.0
0.0
0.0
0.0
-0.18658161163330078
0.08424562215805054
-0.07247099280357361
0.0
0.0
0.0
0.0
0.0
-0.0034249722957611084
-0.10954258590936661
-0.12323347479104996
0.0
0.0
0.0
0.0
0.0
0.1673842966556549
0.06219090521335602
0.016863614320755005
0.0
0.0
0.0
0.0
0.0
-0.14204391837120056
-0.1368846595287323
0.028862610459327698
0.0
0.0
0.0
0.0
0.0
-0.020444542169570923
0.17021363973617554
0.005030348896980286
0.0
0.0
0.0
0.0
0.0
-0.0385296493768692
0.17895498871803284
0.08769059181213379
0.0
0.0
0.0
0.0
0.0
0.09136596322059631
-0.08510429412126541
0.09851640462875366
0.0
0.0
0.0
0.0
0.0
0.11781078577041626
0.1684141457080841
0.05820661783218384
0.0
0.0
0.0
0.0
0.0
0.03574652969837189
-0.018542960286140442
0.0060126036405563354
0.0
0.0
0.0
0.0
0.0
0.06573265790939331
0.18488475680351257
-0.14152687788009644
0.0
0.0
0.0
0.0
0.0
0.16085585951805115
-0.17492127418518066
-0.16232115030288696
0.0
0.0
0.0
0.0
0.0
0.1549687385559082
0.1856258511543274
0.0840197205543518
0.0
0.0
0.0
0.0
0.0
-0.1480465531349182
0.009692579507827759
-0.04580831527709961
0.0
0.0
0.0
0.0
0.0
-0.06086236238479614
0.03142109513282776
0.08213463425636292
0.0
0.0
0.0
0.0
0.0
0.029643267393112183
0.10497373342514038
-0.029411345720291138
0.0
0.0
0.0
0.0
0.0
-0.056175485253334045
0.02453950047492981
0.019269362092018127
0.0
0.0
0.0
0.0
0.0
0.14852938055992126
0.004876330494880676
-0.009987115859985352
0.0
0.0
0.0
0.0
0.0
-0.11839078366756439
0.13833481073379517
0.051233068108558655
0.0
0.0
0.0
0.0
0.0
0.05003476142883301
0.17759332060813904
0.13676324486732483
0.0
0.0
0.0
0.0
0.0
0.028653472661972046
-0.18530675768852234
-0.04920510947704315
0.0
0.0
0.0
0.0
0.0
-0.047833383083343506
-0.031888946890830994
-0.0780080109834671
0.0
0.0
0.0
0.0
0.0
-0.1519300937652588
0.01969975233078003
-0.17134687304496765
0.0
0.0
0.0
0.0
0.0
0.03917776048183441
0.14977145195007324
-0.055569231510162354
0.0
0.0
0.0
0.0
0.0
0.11754205822944641
0.007294207811355591
0.09713232517242432
0.0
0.0
0.0
0.0
0.0
-0.07316156476736069
0.12777745723724365
-0.020452216267585754
0.0
0.0
0.0
0.0
0.0
0.08378875255584717
-0.06211748719215393
0.10989400744438171
0.0
0.0
0.0
0.0
0.0
-0.07679567486047745
-0.14747513830661774
0.11142298579216003
0.0
0.0
0.0
0.0
0.0
0.014466539025306702
-0.0917113646864891
0.08086133003234863
0.0
0.0
0.0
0.0
0.0
-0.16142742335796356
0.16384410858154297
-0.08190132677555084
0.0
0.0
0.0
0.0
0.0
-0.09239957481622696
-0.15023623406887054
0.1199502944946289
0.0
0.0
0.0
0.0
0.0
-0.05535459518432617
-0.1737774908542633
-0.0835094004869461
0.0
0.0
0.0
0.0
0.0
-0.09452208131551743
0.05443441867828369
-0.06653939932584763
0.0
0.0
0.0
0.0
0.0
0.17933419346809387
-0.047295138239860535
0.11808434128761292
0.0
0.0
0.0
0.0
0.0
0.12984782457351685
-0.0795462355017662
-0.17582166194915771
0.0
0.0
0.0
0.0
0.0
0.031738534569740295
-0.07007002830505371
0.11723721027374268
0.0
0.0
0.0
0.0
0.0
-0.007130667567253113
0.0845707356929779
-0.023634105920791626
0.0
0.0
0.0
0.0
0.0
0.05549536645412445
0.17720115184783936
-0.08178923279047012
0.0
0.0
0.0
0.0
0.0
0.050725460052490234
-0.03107154369354248
-0.12958598136901855
0.0
0.0
0.0
0.0
0.0
0.14742600917816162
-0.18022923171520233
0.09182235598564148
0.0
0.0
0.0
0.0
0.0
-0.08939994871616364
-0.10521741211414337
0.181815505027771
0.0
0.0
0.0
0.0
0.0
-0.17071297764778137
0.14382299780845642
0.13082057237625122
0.0
0.0
0.0
0.0
0.0
-0.0898573100566864
-0.12325599044561386
0.10534548759460449
0.0
0.0
0.0
0.0
0.0
0.06344231963157654
0.09571415185928345
0.0716157853603363
0.0
0.0
0.0
0.0
0.0
0.15906643867492676
-0.061652809381484985
0.06732085347175598
0.0
0.0
0.0
0.0
0.0
-0.025933101773262024
-0.08337635546922684
-0.000554502010345459
0.0
0.0
0.0
0.0
0.0
0.03862947225570679
0.1036011278629303
-0.13169924914836884
0.0
0.0
0.0
0.0
0.0
0.0959920585155487
-0.0010726898908615112
-0.034212201833724976
0.0
0.0
0.0
0.0
0.0
-0.08747908473014832
0.14359980821609497
-0.17233528196811676
0.0
0.0
0.0
0.0
0.0
-0.002906426787376404
0.02200116217136383
-0.12125910818576813
0.0
0.0
0.0
0.0
0.0
0.010515794157981873
-0.03262047469615936
0.07472974061965942
0.0
0.0
0.0
0.0
0.0
-0.016271516680717468
0.04293128848075867
-0.05600149929523468
0.0
0.0
0.0
0.0
0.0
0.09695103764533997
-0.13197949528694153
-0.07678629457950592
0.0
0.0
0.0
0.0
0.0
-0.11804421991109848
0.08221912384033203
-0.06787820905447006
0.0
0.0
0.0
0.0
0.0
0.08533510565757751
0.15715238451957703
0.0508493036031723
0.0
0.0
0.0
0.0
0.0
0.001211404800415039
-0.03646381199359894
0.1457829773426056
0.0
0.0
0.0
0.0
0.0
-0.14280956983566284
0.18663445115089417
0.04076027870178223
0.0
0.0
0.0
0.0
0.0
0.1622735857963562
0.09082794189453125
-0.03320181369781494
0.0
0.0
0.0
0.0
0.0
-0.004669010639190674
-0.18361762166023254
0.04177531599998474
0.0
0.0
0.0
0.0
0.0
-0.043264493346214294
-0.12463325262069702
0.15564605593681335
0.0
0.0
0.0
0.0
0.0
0.07031342387199402
0.09548857808113098
0.006051599979400635
0.0
0.0
0.0
0.0
0.0
0.03967159986495972
-0.17356589436531067
0.11137306690216064
0.0
0.0
0.0
0.0
0.0
-0.11730438470840454
0.06358718872070312
-0.06859732419252396
0.0
0.0
0.0
0.0
0.0
-0.18271437287330627
-0.061025336384773254
-0.13150162994861603
0.0
0.0
0.0
0.0
0.0
-0.05544373393058777
-0.1483030915260315
-0.10875125974416733
0.0
0.0
0.0
0.0
0.0
0.16639390587806702
-0.04251250624656677
-0.16956083476543427
0.0
0.0
0.0
0.0
0.0
0.10144975781440735
-0.018343687057495117
0.0570056289434433
0.0
0.0
0.0
0.0
0.0
0.14108413457870483
0.09017077088356018
0.1370372772216797
0.0
0.0
0.0
0.0
0.0
-0.16399848461151123
-0.09266266226768494
-0.0529659241437912
0.0
0.0
0.0
0.0
0.0
-0.04579024016857147
0.04143880307674408
0.15001079440116882
0.0
0.0
0.0
0.0
0.0
0.15741857886314392
-0.06814952194690704
-0.09467142075300217
0.0
0.0
0.0
0.0
0.0
-0.04290609061717987
-0.031317442655563354
0.010479450225830078
0.0
0.0
0.0
0.0
0.0
0.10987430810928345
0.1482931673526764
-0.12414686381816864
0.0
0.0
0.0
0.0
0.0
0.04087470471858978
0.15637382864952087
0.013379305601119995
0.0
0.0
0.0
0.0
0.0
0.09098300337791443
0.10812053084373474
0.1369987428188324
0.0
0.0
0.0
0.0
0.0
-0.1198691576719284
0.07934585213661194
-0.018530458211898804
0.0
0.0
0.0
0.0
0.0
0.08893191814422607
0.05193699896335602
0.08245176076889038
0.0
0.0
0.0
0.0
0.0
-0.04841253161430359
-0.16315554082393646
0.11616864800453186
0.0
0.0
0.0
0.0
0.0
0.12685400247573853
-0.1303953230381012
0.09322622418403625
0.0
0.0
0.0
0.0
0.0
0.05616249144077301
-0.030951276421546936
-0.030079111456871033
0.0
0.0
0.0
0.0
0.0
0.0025519579648971558
-0.16353894770145416
-0.06833142042160034
0.0
0.0
0.0
0.0
0.0
0.1662622094154358
0.06277099251747131
0.04222056269645691
0.0
0.0
0.0
0.0
0.0
-0.15559493005275726
-0.05396965146064758
0.004802808165550232
0.0
0.0
0.0
0.0
0.0
0.06426885724067688
-0.1782524585723877
0.05512656271457672
0.0
0.0
0.0
0.0
0.0
0.07473006844520569
-0.1377817541360855
-0.17390213906764984
0.0
0.0
0.0
0.0
0.0
-0.15935668349266052
-0.17995265126228333
-0.14175620675086975
0.0
0.0
0.0
0.0
0.0
-0.0849958136677742
0.009157687425613403
0.009580880403518677
0.0
0.0
0.0
0.0
0.0
-0.11309849470853806
-0.1497252881526947
0.00561678409576416
0.0
0.0
0.0
0.0
0.0
-0.11744435131549835
0.11819955706596375
-0.001203492283821106
0.0
0.0
0.0
0.0
0.0
0.016586020588874817
0.1324499547481537
-0.16422611474990845
0.0
0.0
0.0
0.0
0.0
0.08985638618469238
-0.09171998500823975
-0.13775330781936646
0.0
0.0
0.0
0.0
0.0
-0.1227266788482666
0.01433408260345459
0.15232113003730774
0.0
0.0
0.0
0.0
0.0
0.18437600135803223
0.04235607385635376
-0.13227741420269012
0.0
0.0
0.0
0.0
0.0
-0.09721797704696655
-0.14538750052452087
-0.16427484154701233
0.0
0.0
0.0
0.0
0.0
0.08439302444458008
0.09998312592506409
-0.15208832919597626
0.0
0.0
0.0
0.0
0.0
0.142848402261734
-0.00714518129825592
0.005648314952850342
0.0
0.0
0.0
0.0
0.0
-0.04851055145263672
0.06658512353897095
0.11778080463409424
0.0
0.0
0.0
0.0
0.0
-0.11883287131786346
-0.016606822609901428
-0.0181734561920166
0.0
0.0
0.0
0.0
0.0
-0.0954740047454834
0.036860570311546326
-0.11584284901618958
0.0
0.0
0.0
0.0
0.0
0.0011201202869415283
-0.09611603617668152
0.010360375046730042
0.0
0.0
0.0
0.0
0.0
0.1066107451915741
0.12094518542289734
0.057515859603881836
0.0
0.0
0.0
0.0
0.0
-0.03158476948738098
0.03339122235774994
-0.10207165777683258
0.0
0.0
0.0
0.0
0.0
0.09980857372283936
0.1505066156387329
0.012507185339927673
0.0
0.0
0.0
0.0
0.0
-0.04965175688266754
0.03796684741973877
0.18203145265579224
0.0
0.0
0.0
0.0
0.0
-0.17786628007888794
0.15101850032806396
0.1447819173336029
0.0
0.0
0.0
0.0
0.0
0.06823351979255676
0.08805617690086365
-0.11342728137969971
0.0
0.0
0.0
0.0
0.0
0.13911497592926025
-0.010053157806396484
0.07264801859855652
0.0
0.0
0.0
0.0
0.0
-0.1719740331172943
0.035638466477394104
0.08354893326759338
0.0
0.0
0.0
0.0
0.0
-0.013755112886428833
-0.033961519598960876
-0.15436482429504395
0.0
0.0
0.0
0.0
0.0
0.09581488370895386
0.16908589005470276
-0.04766179621219635
0.0
0.0
0.0
0.0
0.0
-0.0254947692155838
0.06141681969165802
0.07897454500198364
0.0
0.0
0.0
0.0
0.0
0.03912460803985596
-0.104217030107975
0.12044590711593628
0.0
0.0
0.0
0.0
0.0
-0.055702000856399536
0.16708922386169434
-0.05492626130580902
0.0
0.0
0.0
0.0
0.0
-0.1602560430765152
0.03213556110858917
-0.15444962680339813
0.0
0.0
0.0
0.0
0.0
0.015375375747680664
-0.13925659656524658
-0.04452836513519287
0.0
0.0
0.0
0.0
0.0
0.0397060364484787
-0.009102895855903625
-0.0683823749423027
0.0
0.0
0.0
0.0
0.0-0.045071423053741455
0.0027974843978881836
-0.03100241720676422
0.01952284574508667
-0.029215604066848755
-0.0669548362493515
0.1215423047542572
0.07950475811958313
-0.06489802151918411
0.05758321285247803
-0.08322171121835709
-0.0028089135885238647
0.13508814573287964
0.08650410175323486
-0.07623423635959625
0.12395358085632324
0.08069711923599243
-0.06429930776357651
0.11936330795288086
0.08699293434619904
-0.07135140895843506
0.1388874053955078
0.11155200004577637
0.11106115579605103
-0.029509246349334717
-0.0005455762147903442
-0.06114066392183304
-0.01443202793598175
-0.05524524301290512
0.060991376638412476
0.05664105713367462
0.015198767185211182
0.03312791883945465
-0.12325992435216904
-0.09288808703422546
0.09331734478473663
-0.07387834042310715
-0.13944090902805328
0.10768824815750122
-0.01996459811925888
0.08290208876132965
0.07942812144756317
-0.05397200584411621
-0.028981320559978485
0.05736978352069855
-0.12684215605258942
-0.03671569377183914
-0.05868534743785858
-0.0760655477643013
0.05484625697135925
0.04141761362552643
-0.07052020728588104
-0.12314646691083908
-0.00218355655670166
-0.11236436665058136
0.061526596546173096
0.033526867628097534
-0.0075283050537109375
0.1350899636745453
0.11169707775115967
0.12615573406219482
0.07915398478507996
-0.0022118836641311646
0.005219355225563049
0.04997658729553223
-0.10761392116546631
-0.12602804601192474
-0.08315333724021912
0.1279335916042328
0.0034966766834259033
0.09260322153568268
0.033253490924835205
0.10771581530570984
0.1332092583179474
0.05906577408313751
0.03445380926132202
0.0215408056974411
0.05293814837932587
-0.053681835532188416
-0.06298591196537018
0.10618150234222412
-0.04159999638795853
0.08844959735870361
-0.12232327461242676
-0.045193277299404144
0.07155148684978485
-0.04333299398422241
-0.0029737502336502075
0.1375064253807068
0.04185947775840759
-0.10752634704113007
-0.12189128994941711
0.1335195004940033
0.08023932576179504
0.04762481153011322
0.031681761145591736
-0.09474895894527435
-0.0057478249073028564
-0.07212700694799423
0.09013152122497559
0.06404052674770355
0.09078298509120941
-0.031318292021751404
0.10123655200004578
0.07566650211811066
-0.10670704394578934
0.04339331388473511
0.13655585050582886
0.03140704333782196
-0.12292543053627014
0.10897594690322876
0.023804858326911926
-0.015160679817199707
0.07089994847774506
0.11292910575866699
0.05339060723781586
-0.13482515513896942
-0.11804845929145813
0.04792420566082001
-0.10483157634735107
0.03796467185020447
0.07593013346195221
0.13761067390441895
-0.08134359866380692
-0.03644300997257233
0.14395055174827576
-0.09977620840072632
0.08280697464942932
-0.11365752667188644
0.09209181368350983
-0.021123655140399933
-0.08411227911710739
0.013354182243347168
0.14204800128936768
0.017178744077682495
0.07523740828037262
0.004415050148963928
0.1302678883075714
-0.09343834221363068
-0.10376092791557312
0.10946518182754517
-0.057869523763656616
-0.0637567937374115
-0.03424128144979477
-0.14258216321468353
-0.07859646528959274
-0.008439972996711731
0.027187764644622803
0.12742233276367188
-0.10373722016811371
-0.10487418621778488
0.06157247722148895
-0.057850152254104614
0.029793396592140198
-0.0016028136014938354
-0.04727046191692352
0.07868236303329468
-0.0951162725687027
0.04731947183609009
-0.01562383770942688
0.040509358048439026
-0.10624928772449493
-0.0076274573802948
-0.1419142186641693
-0.08832158148288727
-0.09075714647769928
-0.1168535053730011
-0.03248750418424606
0.07170155644416809
-0.11516838520765305
-0.06960926204919815
0.051910579204559326
-0.1236744225025177
-0.11693286150693893
-0.10011531412601471
0.13893410563468933
0.13725852966308594
0.07726307213306427
0.02052442729473114
0.018281474709510803
0.0759575217962265
-0.1249651089310646
-0.06956291198730469
0.1336555778980255
-0.09892256557941437
0.0663679987192154
-0.09095976501703262
-0.10232977569103241
0.045219600200653076
-0.13127891719341278
0.12976711988449097
0.07659092545509338
-0.019564583897590637
0.015755027532577515
0.09324680268764496
-0.0868140310049057
-0.09084166586399078
0.10245992243289948
0.13116851449012756
0.009333744645118713
0.05934049189090729
-0.0715581625699997
-0.014957889914512634
-0.00994466245174408
0.09401820600032806
0.13313931226730347
-0.09565407782793045
-0.14350712299346924
0.021182149648666382
-0.03170120716094971
-0.020947352051734924
0.14339953660964966
0.03140811622142792
-0.05265942960977554
0.008216500282287598
0.0649482011795044
0.10634124279022217
-0.030356012284755707
0.05158534646034241
-0.12807154655456543
0.019502878189086914
0.0018847882747650146
-0.11864782124757767
0.008329540491104126
0.08589458465576172
-0.030512623488903046
0.004501357674598694
0.04357060790061951
0.042215198278427124
0.02299027144908905
-0.012414783239364624
0.015212297439575195
0.02208656072616577
-0.028649896383285522
-0.0969398021697998
-0.13220375776290894
0.015655294060707092
0.0010867863893508911
0.08772039413452148
0.1101662814617157
0.05927005410194397
0.11858311295509338
-0.1283496767282486
-0.014222308993339539
0.12795287370681763
-0.11165748536586761
-0.07544022798538208
0.09724783897399902
-0.09611093997955322
0.042389288544654846
-0.12364844232797623
-0.1413041204214096
0.10407973825931549
-0.06343850493431091
0.01662328839302063
0.002919405698776245
-0.006607383489608765
0.09862799942493439
0.05697441101074219
0.09104610979557037
-0.003458648920059204
0.13432437181472778
0.032189249992370605
-0.012896150350570679
-0.060386717319488525
-0.12989233434200287
0.1270294189453125
-0.07901915907859802
0.11348095536231995
-0.0823734700679779
0.05297447741031647
-0.09105460345745087
0.007840052247047424
-0.05601440370082855
0.043378204107284546
-0.015618577599525452
0.08469647169113159
-0.1305883228778839
0.10930183529853821
0.0020321011543273926
-0.08873698115348816
0.12112656235694885
0.06084117293357849
-0.05302100628614426
0.010142847895622253
0.08053579926490784
0.029935449361801147
0.04494374990463257
0.05390843749046326
-0.12008259445428848
0.13716238737106323
0.029234319925308228
-0.11480017006397247
-0.007624968886375427
-0.039010919630527496
0.038855716586112976
0.07430921494960785
-0.08747130632400513
-0.06297114491462708
-0.03811488300561905
-0.09572145342826843
0.009127020835876465
0.034016385674476624
0.131260484457016
-0.08470462262630463
0.022190377116203308
-0.02865288406610489
-0.1320497691631317
0.05138802528381348
0.13349637389183044
-0.11905716359615326
-0.03908466547727585
0.07168751955032349
0.0401797890663147
0.04075509309768677
0.07373256981372833
0.004130452871322632
0.0198257714509964
0.10912427306175232
0.029964670538902283
-0.07452894747257233
0.06989946961402893
-0.007460340857505798
0.03426453471183777
-0.14273719489574432
-0.03936767578125
-0.06875462085008621
-0.0665137991309166
-0.08043903112411499
-0.0923423320055008
-0.13783672451972961
0.11566480994224548
-0.1159292459487915
0.07939012348651886
0.10077972710132599
0.06909039616584778
0.005609586834907532
0.09171050786972046
0.07291935384273529
0.048259347677230835
-0.02317427098751068
-0.14267046749591827
-0.09730289876461029
0.05789010226726532
-0.1017543226480484
0.025396928191184998
0.09020760655403137
0.11924749612808228
-0.06676935404539108
0.07958978414535522
-0.08256500959396362
0.012406527996063232
0.04715205729007721
-0.0045751482248306274
0.13760581612586975
-0.10287005454301834
-0.056850530207157135
0.060549795627593994
-0.07657904922962189
0.09517143666744232
-0.03865409642457962
0.040017083287239075
-0.04715245962142944
0.06992469727993011
-0.0741702988743782
-0.09402253478765488
-0.05559604614973068
0.007810667157173157
-0.04691043496131897
0.14232665300369263
0.038759395480155945
0.12840351462364197
0.0833502858877182
0.009650513529777527
0.10333976149559021
0.048966944217681885
0.08534157276153564
0.05048324167728424
0.11771261692047119
0.014909356832504272
-0.005231976509094238
0.1263478398323059
-0.143313929438591
0.06635378301143646
0.05650909245014191
-0.09913823008537292
0.0029977262020111084
-0.0685894787311554
-0.01021304726600647
-0.1422566920518875
-0.036134496331214905
0.004214808344841003
-0.007144838571548462
0.10787460207939148
0.09552063047885895
0.05715157091617584
0.013707667589187622
0.10104270279407501
-0.12007230520248413
0.10051965713500977
0.13377955555915833
-0.09627151489257812
-0.01299925148487091
0.023971587419509888
0.0844249576330185
0.07138462364673615
0.030948355793952942
-0.0827891081571579
0.12154671549797058
-0.14177381992340088
0.06662337481975555
0.10201297700405121
0.03952246904373169
0.11809426546096802
0.1251114308834076
0.05438677966594696
0.1366177797317505
-0.05271380394697189
0.034046053886413574
-0.08640988171100616
-0.08201365172863007
0.09882022440433502
-0.1223394125699997
-0.08976158499717712
0.019983112812042236
-0.05449356138706207
-0.0461176335811615
0.14214694499969482
-0.13082419335842133
-0.06018732488155365
0.12860244512557983
0.13217654824256897
-0.06413185596466064
-0.10869923233985901
-0.12957128882408142
0.028443753719329834
-0.06194643676280975
-0.10718455910682678
0.10359324514865875
0.10827544331550598
0.08471594750881195
-0.04569040238857269
-0.046065159142017365
0.03927129507064819
-0.10578557103872299
0.14213985204696655
0.013915762305259705
0.07181377708911896
-0.13519148528575897
-0.0156954824924469
-0.05088032782077789
0.07964250445365906
-0.08493770658969879
0.037301987409591675
0.07769051194190979
0.07676488161087036
0.05967220664024353
-0.04674174636602402
-0.1103421002626419
-0.12995751202106476
-0.08065727353096008
-0.07709641754627228
0.03566642105579376
0.1244300901889801
-0.11641684174537659
0.07820942997932434
-0.07792730629444122
0.052220121026039124
-0.0018240511417388916
0.05871841311454773
0.03739476203918457
0.05103491246700287
0.12624603509902954
-0.1400076150894165
-0.032580725848674774
0.0996982604265213
-0.1384650319814682
-0.12176764756441116
-0.021456629037857056
0.08395181596279144
0.12292137742042542
-0.04626251757144928
0.040519192814826965
0.057938456535339355
-0.03636733442544937
-0.015885129570961
0.04398070275783539
0.1356498897075653
0.0328533798456192
-0.014623045921325684
0.14372313022613525
-0.10884162783622742
0.10598617792129517
-0.0054244548082351685
-0.13430321216583252
0.041456982493400574
-0.14104031026363373
0.08548703789710999
0.0194721519947052
-0.13288798928260803
-0.09772910177707672
-0.0992421954870224
0.0233423113822937
-0.06906764209270477
0.06482523679733276
0.033362552523612976
-0.10615327209234238
0.13187909126281738
-0.01868303120136261
0.11318668723106384
0.04799364507198334
-0.07440533488988876
0.08208949863910675
0.037773266434669495
0.1237044632434845
-0.07388129830360413
-0.07741115242242813
-0.08959901332855225
-0.06342749297618866
-0.009053349494934082
0.11560297012329102
-0.08020385354757309
0.0693097710609436
-0.10937255620956421
-0.05097313970327377
0.11361238360404968
0.01202303171157837
-0.02180447429418564
0.10664957761764526
-0.0959094911813736
-0.08706124871969223
0.1089073121547699
0.01040823757648468
0.021071165800094604
-0.10488860309123993
0.13879314064979553
-0.06352557241916656
-0.023724325001239777
-0.08621923625469208
0.018452629446983337
-0.03682821989059448
-0.07806616276502609
-0.04030683636665344
-0.13358457386493683
-0.05656521022319794
-0.042148299515247345
-0.055356428027153015
0.034391388297080994
-0.11741133779287338
0.09418796002864838
-0.10525447875261307
0.00036866962909698486
0.04288473725318909
-0.0969756692647934
-0.10315489023923874
-0.040567755699157715
-0.07185497134923935
-0.052350856363773346
-0.0871625542640686
-0.053181715309619904
-0.05384316295385361
-0.13248680531978607
0.01618257164955139
0.09652011096477509
-0.00889521837234497
-0.12778368592262268
-0.06560324132442474
0.05440109968185425
-0.027604781091213226
-0.14369916915893555
-0.06038957089185715
-0.1387992799282074
0.11730262637138367
-0.1345532238483429
0.10097236931324005
-0.0470123365521431
-0.0015775859355926514
-0.006403312087059021
-0.13257868587970734
-0.13765089213848114
0.11812439560890198
0.11987671256065369
0.0416911244392395
-0.08425519615411758
-0.12633652985095978
0.0257083922624588
0.10615816712379456
-0.08091650158166885
-0.07875145971775055
-0.06294089555740356
0.08465985953807831
0.05661621689796448
-0.0953778475522995
0.08969162404537201
0.09661756455898285
0.08604291081428528
0.09341156482696533
0.12732499837875366
0.03135676681995392
-0.05227676033973694
0.13844063878059387
0.005362167954444885
0.0045088231563568115
-0.020777113735675812
-0.11863787472248077
0.03725700080394745
0.10194738209247589
-0.03646867722272873
0.046537742018699646
-0.12932875752449036
-0.14129774272441864
-0.01617385447025299
-0.10620547831058502
-0.041089415550231934
0.07649253308773041
0.10587719082832336
-0.04773513972759247
-0.038130782544612885
0.12054848670959473
-0.1025853231549263
-0.05417603999376297
-0.11479658633470535
0.046947330236434937
-0.046502478420734406
-0.07170455157756805
0.06224754452705383
-0.09755091369152069
-0.027099840342998505
-0.1376638263463974
0.07217900454998016
-0.12538491189479828
-0.0850214958190918
0.02852332592010498
-0.0747525617480278
0.08773466944694519
0.036373838782310486
0.07548582553863525
-0.07509114593267441
0.0666029304265976
-9.366869926452637e-05
0.117362380027771
-0.07785958796739578
0.10849353671073914
0.05294182896614075
0.052899569272994995
0.1276695728302002
-0.07467014342546463
0.0683431476354599
0.12890875339508057
0.06587207317352295
-0.13280406594276428
-0.06389523297548294
0.07762561738491058
-0.12035582959651947
-0.08416658639907837
0.11889699101448059
0.023171350359916687
-0.09721700102090836
-0.05376219004392624
-0.060148753225803375
-0.08488653600215912
-0.03972140699625015
0.09517443180084229
0.00533410906791687
0.0038283169269561768
0.08764636516571045
-0.12222592532634735
-0.14310039579868317
0.1313549280166626
-0.0940403938293457
0.11335372924804688
0.05357804894447327
0.1334582269191742
-0.04183342307806015
0.1248353123664856
-0.1399521678686142
-0.022111989557743073
0.11533975601196289
0.14037486910820007
0.06665648519992828
-0.10782050341367722
-0.042051009833812714
0.10332928597927094
0.0990716814994812
-0.09435320645570755
0.026411786675453186
-0.09015072137117386
0.019033804535865784
0.051803067326545715
0.0389552116394043
0.09995578229427338
0.12513765692710876
-0.036168187856674194
-0.07676853239536285
-0.04737553000450134
0.10272648930549622
-0.12798084318637848
-0.0994015634059906
-0.12429894506931305
-0.04284529387950897
-0.04011436551809311
-0.010907843708992004
0.05224734544754028
-0.02749820053577423
-0.1323070377111435
-0.06640096008777618
0.1317303478717804
-0.11246925592422485
-0.02047324925661087
0.11811909079551697
0.09430664777755737
-0.10486213862895966
-0.14293621480464935
-0.03177835792303085
0.12485164403915405
0.021646827459335327
-0.07648661732673645
0.011668607592582703
0.05098786950111389
-0.01819451153278351
0.09161907434463501
0.10545121133327484
-0.08525513112545013
-0.1062929555773735
-0.1141783595085144
0.12477508187294006
0.0345323383808136
-0.09721662104129791
0.0575459748506546
0.025442034006118774
-0.018547996878623962
0.09421747922897339
-0.03433556854724884
0.117638498544693
0.016279026865959167
-0.11021611094474792
-0.01863570511341095
-0.13017039000988007
-0.08032866567373276
0.13791537284851074
0.1345278024673462
0.137663334608078
0.016767367720603943
-0.060017362236976624
-0.10419239848852158
-0.03266507387161255
-0.09549117088317871
0.0385763943195343
-0.052500754594802856
0.03409320116043091
-0.0607876256108284
-0.05163086950778961
-0.04638034105300903
-0.05523192137479782
-0.013237625360488892
0.03568321466445923
-0.06285634636878967
-0.026933111250400543
-0.04455863684415817
-0.12240751832723618
-0.13656242191791534
0.03459940850734711
-0.08701709657907486
-0.06840629875659943
-0.13519945740699768
-0.09072493016719818
0.06111609935760498
0.05748933553695679
0.132783442735672
0.09180521965026855
0.08063562214374542
-0.1024852842092514
-0.06259477138519287
-0.1214016005396843
-0.1041223332285881
-0.05737924575805664
-0.03157391399145126
0.09056994318962097
-0.04664456844329834
-0.09637616574764252
0.10792738199234009
0.07965706288814545
0.07855093479156494
-0.14322428405284882
-0.08435681462287903
-0.1087552160024643
-0.01845642924308777
0.12728148698806763
-0.030996225774288177
0.038429513573646545
0.026993051171302795
0.0693126916885376
0.021866828203201294
-0.012539282441139221
0.03162199258804321
-0.06503890454769135
-0.002068072557449341
-0.05848851054906845
0.062903493642807
0.10160869359970093
0.10692790150642395
0.1426008939743042
0.045882776379585266
-0.12091296911239624
0.06683635711669922
0.003603219985961914
0.07087871432304382
-0.1275556981563568
-0.04999571293592453
-0.12069882452487946
0.12898606061935425
0.03126443922519684
0.003021061420440674
-0.1316870152950287
-0.032476864755153656
0.0683404952287674
0.12128835916519165
0.056013405323028564
-0.08727540075778961
-0.11691830307245255
-0.1434745341539383
0.1306067407131195
-0.11904167383909225
-0.018321380019187927
0.09660080075263977
-0.08640413731336594
-0.08712363243103027
-0.04523994028568268
-0.023627281188964844
0.07493254542350769
-0.14339454472064972
-0.09399180114269257
0.12745383381843567
-0.025331124663352966
-0.022735513746738434
0.03976184129714966
-0.12558674812316895
-0.11781709641218185
0.1323746144771576
-0.13675819337368011
0.00023916363716125488
-0.019637741148471832
-0.034549035131931305
-0.08735138177871704
0.03756248950958252
-0.08893188834190369
-0.055724404752254486
0.09368488192558289
-0.12876203656196594
-0.04565409570932388
-0.06355991214513779
-0.14393968880176544
0.10208716988563538
0.11442264914512634
0.0920080840587616
0.03242307901382446
0.10879716277122498
0.11780959367752075
-0.0896720439195633
0.050911545753479004
-1.9609928131103516e-05
-0.09683674573898315
0.05553072690963745
0.0950017124414444
-0.07656067609786987
-0.07312920689582825
-0.0553746372461319
0.08755022287368774
0.12836989760398865
0.1313210129737854
-0.08666099607944489
-0.0036543607711791992
-0.02021198719739914
0.08118534088134766
-0.014951512217521667
0.03857794404029846
0.12125524878501892
0.012184426188468933
-0.14200572669506073
0.12085813283920288
-0.12211982905864716
-0.12620799243450165
-0.10194180905818939
0.1165270209312439
0.005075573921203613
-0.002547234296798706
0.0996854305267334
0.014548063278198242
-0.010994911193847656
-0.0810428336262703
-0.11866255104541779
-0.14299605786800385
-0.0032330751419067383
-0.10052011162042618
0.14425599575042725
-0.11293730139732361
0.07103677093982697
0.04759387671947479
-0.06403876841068268
-0.024839885532855988
0.10956364870071411
-0.06583046913146973
0.03350360691547394
0.09519074857234955
-0.03709736466407776
0.08435499668121338
0.054166510701179504
0.08348999917507172
-0.06990841776132584
0.014092639088630676
-0.1257839947938919
0.07016901671886444
0.05049954354763031
0.08691664040088654
0.1337374448776245
-0.01052345335483551
0.12178376317024231
-0.0461578294634819
0.12301278114318848
0.10552531480789185
0.015505015850067139
-0.08746583759784698
-0.11066316813230515
-0.09935916215181351
0.06091347336769104
0.13387897610664368
0.10538069903850555
-0.11977773159742355
-0.1298450380563736
0.09002739191055298
0.06892365217208862
0.09960910677909851
0.08162888884544373
-0.06461318582296371
0.07132717967033386
-0.058828674256801605
0.0025610029697418213
0.12236860394477844
-0.1215973049402237
0.0644623190164566
0.10412164032459259
0.0907411128282547
0.1282215118408203
0.045241355895996094
0.026539355516433716
0.05374845862388611
-0.12579958140850067
0.12525621056556702
-0.12671272456645966
0.06974165141582489
0.04766087234020233
-0.08390862494707108
0.06303098797798157
0.003386184573173523
0.13296717405319214
0.06376773118972778
0.11100989580154419
-0.14297932386398315
-0.006553426384925842
-0.06908216327428818
0.041710227727890015
-0.054351918399333954
0.06389853358268738
0.005319073796272278
-0.13617822527885437
-0.02459954470396042
-0.0784076452255249
-0.038141995668411255
0.09257912635803223
0.06291776895523071
0.12082996964454651
-0.054648660123348236
0.03624327480792999
0.07562185823917389
-0.06709513813257217
-0.13196806609630585
-0.1372651904821396
-0.07392551749944687
-0.02283802628517151
0.03727145493030548
-0.09482142329216003
-0.1087377741932869
0.13724258542060852
-0.07061036676168442
-0.055782146751880646
-0.033647000789642334
0.09040461480617523
-0.13204804062843323
-0.09461642801761627
-0.09719522297382355
0.033146053552627563
0.048789069056510925
0.0937081128358841
-0.07383793592453003
0.09631951153278351
0.06721334159374237
-0.09773357212543488
-0.06537236273288727
-0.03434024751186371
0.06641046702861786
0.13364821672439575
0.010839670896530151
-0.06021430343389511
0.09589135646820068
0.11576971411705017
-0.05274205654859543
-0.1076924204826355
0.1314823031425476
0.13033431768417358
0.06379161775112152
0.01816631853580475
-0.015937790274620056
0.05784539878368378
0.012450739741325378
0.07251690328121185
-0.0972575694322586
0.10537406802177429
-0.02066083252429962
0.14424505829811096
0.12202125787734985
0.029880866408348083
0.05393996834754944
-0.07373342663049698
0.1009155809879303
-0.10354121029376984
0.11877751350402832
0.11219048500061035
0.07214407622814178
-0.09557041525840759
-0.12572342157363892
0.1075073778629303
-0.0995645672082901
0.03865642845630646
0.029557213187217712
0.10641849040985107
0.07078538835048676
-0.10843057185411453
-0.009573832154273987
0.10672435164451599
-0.052543528378009796
-0.02774621546268463
-0.12103744596242905
0.04290197789669037
0.1353028118610382
-0.09956611692905426
-0.1337178498506546
-0.05449094623327255
0.014240473508834839
0.026240482926368713
-0.10890112817287445
-0.0018624216318130493
-0.014113560318946838
0.13635408878326416
-0.027978740632534027
0.052578285336494446
-0.01989494264125824
-0.06026740372180939
0.14202424883842468
0.031061232089996338
0.03729158639907837
-0.0532311350107193
0.09885181486606598
0.09077394008636475
0.08943046629428864
0.010629728436470032
0.0343797504901886
-0.00257854163646698
-0.11093451082706451
-0.06729569286108017
-0.04017572104930878
-0.0191982239484787
0.07852451503276825
-0.06414028257131577
0.05970035493373871
0.00659826397895813
0.01535886526107788
0.005786821246147156
-0.09032292664051056
-0.06896357983350754
0.14050942659378052
-0.00472569465637207
-0.13874253630638123
-0.011068075895309448
-0.10431552678346634
-0.05370589345693588
-0.1285645067691803
0.08418338000774384
-0.05021093040704727
-0.01722276210784912
-0.08303949236869812
-0.007072433829307556
-0.06431665271520615
-0.0961170345544815
-0.025910086929798126
-0.029952622950077057
0.10681483149528503
-0.0637437105178833
0.1282949447631836
0.1379949450492859
0.04833884537220001
-0.0846584141254425
-0.09721215069293976
0.06271873414516449
0.015575766563415527
-0.10719418525695801
0.05722135305404663
-0.11274014413356781
-0.05178700387477875
-0.04858599603176117
0.10277511179447174
-0.07396364957094193
-0.06833671778440475
0.14208978414535522
0.024414032697677612
-0.025692462921142578
0.029268771409988403
0.02724502980709076
-0.08042062073945999
-0.015796661376953125
0.09269148111343384
-0.004524141550064087
0.13635438680648804
-0.08171584457159042
-0.027361683547496796
-0.03894629329442978
0.06270892918109894
0.06831744313240051
-0.09517470747232437
-0.09577366709709167
-0.0037572532892227173
-0.12760008871555328
0.09981141984462738
-0.04265753924846649
-0.06011953204870224
0.04962368309497833
-0.019661039113998413
-0.1067434549331665
0.018117114901542664
0.12493360042572021
-0.07912742346525192
-0.07662592083215714
-0.09801238775253296
0.1052367240190506
-0.1365956962108612
0.12189185619354248
0.0831678956747055
-0.0006086528301239014
-0.14336839318275452
-0.09855864942073822
-0.10994859039783478
-0.08716483414173126
0.13038533926010132
-0.007047697901725769
-0.042573608458042145
0.07493112981319427
-0.09204792976379395
-0.07477110624313354
-0.06836816668510437
0.05701436102390289
0.11630377173423767
-0.0073996782302856445
-0.0863005518913269
-0.09726514667272568
-0.0810551568865776
-0.08865046501159668
-0.010000616312026978
0.0406966358423233
0.09138225018978119
0.1050824522972107
-0.10413196682929993
-0.10186052322387695
0.02658870816230774
0.08074481785297394
0.10785597562789917
0.06913544237613678
-0.04327668994665146
0.10036012530326843
-0.037034496665000916
0.12844526767730713
0.125137597322464
-0.061889275908470154
0.11055532097816467
0.10824939608573914
-0.009992092847824097
0.07932783663272858
-0.0555344820022583
0.07314135134220123
0.08577936887741089
-0.042521677911281586
-0.041227929294109344
0.07979358732700348
0.029200538992881775
0.12930536270141602
0.08425550162792206
0.018126100301742554
0.030163511633872986
0.1069057285785675
0.10737571120262146
0.11655259132385254
-0.13171668350696564
-0.010566577315330505
-0.0251757875084877
-0.00770607590675354
-0.11491359025239944
-0.08755424618721008
0.03524978458881378
0.06501945853233337
-0.09082792699337006
0.031303808093070984
-0.04991866648197174
0.06105339527130127
-0.06131138652563095
0.004852294921875
-0.07241816818714142
0.10319992899894714
-0.11267012357711792
0.05694544315338135
-0.013285219669342041
-0.11886844038963318
0.05433942377567291
0.13851594924926758
-0.03487753868103027
0.06023949384689331
0.1273394227027893
-0.05419117957353592
0.026915937662124634
-0.09498120844364166
0.07691189646720886
-0.0014000087976455688
0.05749081075191498
-0.00836220383644104
0.0075399428606033325
-0.07995711266994476
0.13886529207229614
-0.004025191068649292
0.10610288381576538
-0.13857321441173553
-0.07449019700288773
0.04104454815387726
-0.11819098889827728
0.008790090680122375
0.052625060081481934
-0.030431129038333893
-0.09545290470123291
0.11297038197517395
0.03857944905757904
-0.10599060356616974
-0.07966549694538116
0.04196518659591675
0.06423990428447723
-0.14018501341342926
-0.0277642160654068
-0.1271875947713852
0.12982836365699768
-0.0857933759689331
0.04408051073551178
-0.1195366382598877
0.01424477994441986
-0.021578654646873474
0.09359849989414215
0.044181227684020996
-0.06098656356334686
0.11530208587646484
-0.11457899212837219
-0.01383131742477417
-0.06662454456090927
0.03434757888317108
0.03554752469062805
0.05290335416793823
0.0430484265089035
-0.10358955711126328
-0.036994852125644684
0.03375929594039917
0.023513689637184143
0.06651376187801361
-0.06181570142507553
-0.12293943762779236
0.04615524411201477
-0.1048753559589386
-0.03335002064704895
-0.09646167606115341
-0.06253644824028015
-0.13250543177127838
0.1084991991519928
0.07503591477870941
-0.021100454032421112
-0.12325964868068695
-0.0867648497223854
0.05799388885498047
-0.08896087110042572
0.0925726592540741
0.06683173775672913
-0.09172679483890533
0.12082701921463013
0.13309845328330994
-0.14218223094940186
0.020062536001205444
-0.09789479523897171
0.14069795608520508
0.025448545813560486
-0.10253249853849411
0.09994035959243774
-0.08151384443044662
0.07751844823360443
0.015410512685775757
0.11119198799133301
0.08222256600856781
0.12160494923591614
0.088593989610672
-0.05390011519193649
-0.08864389359951019
0.044604986906051636
-0.12375783920288086
0.1332230269908905
-0.13407127559185028
-0.01568351686000824
0.006314530968666077
0.018813803791999817
0.03495706617832184
0.06096002459526062
-0.13971029222011566
-0.07365551590919495
0.1266307830810547
-0.11985849589109421
-0.05686556547880173
0.048144713044166565
0.11912554502487183
-0.044697560369968414
-0.13990861177444458
-0.1413090080022812
-0.07841262966394424
0.08299978077411652
0.016171038150787354
0.033136144280433655
-0.10346043854951859
-0.1430913358926773
0.12359723448753357
0.10716035962104797
-0.05775138735771179
-0.06097668409347534
0.10802090167999268
-0.10861667990684509
-0.06494055688381195
-0.08586165308952332
-0.06971319019794464
-0.12169603258371353
-0.1030769795179367
-0.05596047639846802
0.018892571330070496
0.010052546858787537
0.02511976659297943
0.1090565025806427
0.09594455361366272
0.12583330273628235
-0.10586468875408173
-0.04786752909421921
-0.007001861929893494
-0.013976261019706726
-0.08572882413864136
0.004658594727516174
0.11205810308456421
0.12868055701255798
0.017537057399749756
0.055878475308418274
-0.10864165425300598
0.06910212337970734
-0.1001046746969223
-0.006091058254241943
0.03412008285522461
-0.02391638606786728
-0.059512391686439514
-0.06577692180871964
-0.13229413330554962
0.020129263401031494
0.116208016872406
0.07880562543869019
-0.007789537310600281
0.1268739104270935
0.12936565279960632
0.10877597332000732
0.03149700164794922
-7.815659046173096e-05
-0.13592429459095
-0.13781249523162842
0.10158553719520569
0.11736810207366943
-0.03758537024259567
0.07973353564739227
-0.03732641786336899
-0.14037944376468658
0.13497960567474365
0.019633620977401733
0.004226982593536377
0.1425289809703827
0.005319520831108093
-0.09254440665245056
-0.04486057162284851
-0.042601101100444794
-0.02480185776948929
0.05090077221393585
-0.11682622134685516
-0.006741762161254883
-0.008360788226127625
0.09414462745189667
0.10707870125770569
0.10090102255344391
-0.05108291655778885
-0.13877683877944946
-0.0638914480805397
-0.127687469124794
-0.030414164066314697
-0.033478282392024994
0.04818488657474518
-0.047748006880283356
-0.08924642205238342
-0.053302228450775146
0.03686477243900299
0.004955574870109558
-0.10878622531890869
0.06408652663230896
0.14074242115020752
0.12685638666152954
0.10463449358940125
-0.015052556991577148
0.14107313752174377
0.11742430925369263
-0.04576476663351059
0.11534655094146729
0.036468952894210815
0.09213361144065857
0.0282534658908844
-0.12420087307691574
-0.08595794439315796
-0.13202004134655
-0.008036404848098755
-0.12385623157024384
-0.11717939376831055
0.08172127604484558
-0.11613300442695618
0.023789778351783752
0.06641136109828949
0.05522473156452179
0.005673050880432129
-0.08414693176746368
-0.07234363257884979
-0.11812980473041534
0.020944878458976746
0.10273808240890503
-0.031046710908412933
0.045642197132110596
0.024694591760635376
0.11413496732711792
-0.08384902775287628
0.04268603026866913
0.1044817715883255
-0.11241711676120758
0.09427182376384735
0.033763691782951355
0.05647721886634827
-0.04135122895240784
-0.05712393671274185
0.08417168259620667
-0.03697908669710159
0.0485539585351944
-0.06842780858278275
0.13491913676261902
-0.00616687536239624
-0.060358189046382904
0.11356458067893982
-0.08600006252527237
-0.09133008122444153
-0.04674346745014191
-0.0532393604516983
0.06199571490287781
0.04942670464515686
-0.014769718050956726
-0.14211109280586243
-0.06521657854318619
0.09491130709648132
-0.07411058992147446
-0.10823070257902145
-8.268654346466064e-05
-0.0571385994553566
0.09504775702953339
-0.02847934514284134
-0.13312189280986786
-0.12758733332157135
-0.08048314601182938
-0.05378049612045288
-0.06579209864139557
0.05987998843193054
0.05458059906959534
0.10981878638267517
-0.0013513267040252686
0.0012136995792388916
0.02820572257041931
-0.06135983765125275
-0.06334710866212845
0.1084127426147461
-0.1090950146317482
0.059064239263534546
0.009119346737861633
0.08772706985473633
-0.10325059294700623
-0.13268984854221344
0.10947692394256592
0.1357809603214264
-0.010621190071105957
-0.03708084672689438
-0.09317164123058319
-0.0019264668226242065
-0.022369086742401123
-0.06543585658073425
0.13088223338127136
0.07200776040554047
0.03313687443733215
-0.07406650483608246
-0.0791703313589096
0.14062431454658508
-0.0566624253988266
0.02486996352672577
-0.11796734482049942
-0.0795850083231926
-0.014704227447509766
-0.09818809479475021
0.055919840931892395
0.01291300356388092
0.1132952868938446
-0.1365739107131958
-0.13508284091949463
-0.054513417184352875
0.03777271509170532
0.0935245156288147
0.008048668503761292
0.10249757766723633
0.09441834688186646
0.02130816876888275
-0.009781166911125183
0.07300026714801788
-0.1186181902885437
0.05636386573314667
0.0443098247051239
-0.08719132840633392
0.018446505069732666
-0.032043956220149994
-0.14186160266399384
0.08418726921081543
-0.14228402078151703
0.01130858063697815
0.04794967174530029
-0.03325539082288742
-0.08324232697486877
-0.0496024414896965
0.01326797902584076
0.07630161941051483
0.03311099112033844
0.0009459406137466431
0.07151976227760315
0.08289583027362823
-0.017117217183113098
0.03136385977268219
-0.07785318791866302
-0.0259995236992836
0.09586650133132935
-0.03990981727838516
-0.144293412566185
-0.10424016416072845
-0.09350311011075974
0.05614231526851654
-0.06798119843006134
0.11537006497383118
-0.04357725381851196
-0.01247173547744751
-0.08852206915616989
0.1064351499080658
-0.09213247895240784
0.004761591553688049
-0.1182478815317154
-0.07388284802436829
-0.015718400478363037
-0.04368792474269867
-0.03160412609577179
0.12643393874168396
-0.12770257890224457
-0.1027531549334526
-0.06788446009159088
0.13768666982650757
-0.0062515586614608765
-0.07878094911575317
-0.08110016584396362
0.025790944695472717
-0.019825845956802368
0.012122541666030884
0.02418641746044159
-0.03947111964225769
-0.02266702800989151
-0.014253765344619751
-0.05203470587730408
-0.08595515042543411
0.09181526303291321
0.06685249507427216
-0.017136141657829285
-0.023337632417678833
-0.09992346167564392
-0.11849416792392731
-0.060194551944732666
0.04736781120300293
0.12446007132530212
-0.013480886816978455
-0.08681392669677734
-0.09418722987174988
0.013232424855232239
-0.14082340896129608
0.005418017506599426
0.09308606386184692
0.02241852879524231
0.13148018717765808
0.0724920928478241
0.1236465573310852
-0.04220961779356003
0.027196332812309265
-0.0659988522529602
0.016261577606201172
-0.01446622610092163
0.1205475926399231
-0.09128469228744507
-0.061986975371837616
0.10972669720649719
-0.00884091854095459
-0.10165797173976898
-0.06355960667133331
0.12575584650039673
0.10896936058998108
0.00969637930393219
0.14363744854927063
-0.10797040164470673
0.1432519555091858
0.09401802718639374
-0.027123138308525085
-0.05455223470926285
0.1076110303401947
0.08439402282238007
-0.10531267523765564
-0.07642260938882828
0.0772763192653656
0.025287657976150513
0.08032986521720886
0.09623850882053375
-0.09443961828947067
0.01849152147769928
0.08669413626194
-0.1276080459356308
-0.07519177347421646
-0.05574288219213486
-0.06154391169548035
-0.07164570689201355
0.09120947122573853
-0.10055284202098846
0.08243294060230255
0.0728505402803421
0.05564047396183014
0.12273997068405151
0.0429580956697464
0.0945841521024704
0.09111200273036957
-0.08370989561080933
-0.041224829852581024
0.11488834023475647
0.01081344485282898
-0.06594134867191315
-0.11065734922885895
-0.0747794359922409
-0.13092879951000214
-0.06789165735244751
-0.01420217752456665
-0.021848730742931366
0.03528092801570892
0.1279078722000122
0.129336416721344
0.04878944158554077
-0.09223297238349915
-0.1234796792268753
0.11007776856422424
0.1228877604007721
0.12074318528175354
0.12530577182769775
-0.031709253787994385
-0.0803602933883667
0.09283295273780823
0.11295056343078613
-0.06556112319231033
-0.02635835111141205
0.018697142601013184
-0.09255751967430115
-0.14070546627044678
0.043547213077545166
0.0011145323514938354
0.05486972630023956
0.12266802787780762
-0.08187321573495865
0.05059985816478729
0.03319677710533142
0.1414867341518402
0.06017528474330902
-0.11008851230144501
-0.05770651251077652
-0.09445516765117645
-0.10638603568077087
-0.1317317932844162
0.05392110347747803
-0.00895756483078003
0.11610612273216248
-0.07459253817796707
-0.13797664642333984
-0.07349890470504761
0.06172138452529907
-0.1424718052148819
0.1285947561264038
0.09659506380558014
0.06813539564609528
-0.08410243690013885
-0.09375101327896118
0.1163923442363739
-0.09254632890224457
0.14313247799873352
-0.10716800391674042
-0.13880403339862823
-0.13523916900157928
0.056872591376304626
0.05404984951019287
0.014978498220443726
0.11263513565063477
0.0018125921487808228
-0.12021102011203766
-0.09741488099098206
0.06562650203704834
0.012879669666290283
-0.12288795411586761
-0.12284287810325623
-0.11480202525854111
0.03755389153957367
0.003631412982940674
-0.04271438717842102
-0.0756930261850357
-0.09901922941207886
0.10123300552368164
0.06571130454540253
0.00389745831489563
-0.07220515608787537
0.010791048407554626
-0.11548587679862976
0.0907844603061676
0.10211321711540222
0.10752055048942566
0.10265718400478363
0.03289887309074402
0.1171349287033081
-0.09801021218299866
-0.11619068682193756
0.0017080157995224
-0.1303800642490387
0.12602373957633972
0.04609355330467224
-0.08174420148134232
0.07943713665008545
0.07759791612625122
-0.0640321597456932
0.05971762537956238
0.11273986101150513
0.0020121783018112183
0.13037362694740295
0.02573809027671814
-0.009297162294387817
0.054272159934043884
0.0822966992855072
0.06371453404426575
-0.012299910187721252
0.09871160984039307
-0.1262570321559906
-0.09130942821502686
-0.07283002138137817
-0.14357593655586243
0.07411317527294159
-0.056429795920848846
0.061849504709243774
-0.024557769298553467
0.03852604329586029
-0.11167483031749725
-0.03647924214601517
0.13886761665344238
-0.060117125511169434
0.0822400152683258
-0.09972327947616577
-0.08826414495706558
0.03847479820251465
-0.06135547161102295
-0.022580377757549286
0.10554678738117218
-0.10297773778438568
-0.06894908845424652
0.027622118592262268
0.05540759861469269
0.08861874043941498
-0.10007160902023315
-0.07215732336044312
0.02177026867866516
0.08414687216281891
0.013720601797103882
-0.1371389627456665
0.12420174479484558
-0.10151446610689163
-0.1284123659133911
-0.07327108830213547
0.007676824927330017
-0.09047530591487885
-0.02378097176551819
-0.12052802741527557
-0.1379185914993286
-0.004076287150382996
-0.08394221216440201
8.9302659034729e-05
0.04777148365974426
-0.019569844007492065
0.03278665244579315
-0.12377463281154633
0.1079978346824646
-0.017745524644851685
0.07347127795219421
-0.029309101402759552
-0.10513702780008316
-0.036573946475982666
-0.09089922904968262
-0.14221897721290588
0.009373590350151062
0.05276542901992798
0.01857377588748932
0.09846773743629456
0.08490924537181854
0.13571396470069885
-0.02756616473197937
-0.026382915675640106
-0.057128965854644775
0.0005715638399124146
0.05120263993740082
-0.05902090668678284
-0.03579989820718765
-0.0745990127325058
-0.1412946581840515
-0.07830870896577835
0.038571715354919434
0.08742615580558777
0.04431509971618652
0.04500146210193634
0.0298444926738739
0.04747395217418671
-0.06874749809503555
-0.11985453963279724
0.049251019954681396
-0.07959271222352982
0.00032591819763183594
0.10340593755245209
0.03358843922615051
-0.0863644927740097
0.1271311640739441
0.01849830150604248
-0.11142437905073166
0.013335943222045898
0.09138984978199005
-0.0033027231693267822
0.07802879810333252
0.12881633639335632
0.002234622836112976
0.030138999223709106
-0.09750617295503616
-0.10535451769828796
0.02099202573299408
0.052913978695869446
0.04453052580356598
0.12355121970176697
0.026041239500045776
-0.028566405177116394
-0.1093287467956543
-0.054669275879859924
0.08959585428237915
0.012406378984451294
-0.08187125623226166
0.13818803429603577
-0.08491447567939758
-0.06221506744623184
-0.1336490958929062
0.09829890727996826
-0.08057698607444763
-0.039418093860149384
0.07220752537250519
0.0022979527711868286
0.07125876843929291
-0.1269654482603073
0.13706085085868835
-0.041429586708545685
0.03466968238353729
0.04066359996795654
0.0844476968050003
0.06451445817947388
-0.009874939918518066
-0.0023421049118041992
0.06661801040172577
0.0031447410583496094
-0.07790253311395645
0.1412981152534485
0.06780637800693512
0.05765850841999054
-0.035679593682289124
0.0475710928440094
0.12084424495697021
0.04132108390331268
-0.006217896938323975
0.08605308830738068
0.1307862102985382
-0.04358603060245514
0.03886067867279053
-0.061141349375247955
0.03661024570465088
-0.04863293468952179
0.01376613974571228
-0.09811803698539734
-0.13274435698986053
-0.08933200687170029
0.01802888512611389
0.05545884370803833
0.13290444016456604
-0.11271420121192932
-0.08939643204212189
0.015262603759765625
0.04362271726131439
-0.12273131310939789
-0.08861280977725983
0.05035649240016937
0.0076844096183776855
0.01904749870300293
-0.0492403507232666
-0.04121691733598709
0.011462926864624023
0.015044733881950378
0.008723154664039612
0.05323918163776398
0.1284538209438324
0.08327412605285645
-0.07648149132728577
-0.04530622065067291
-0.02751678228378296
-0.08951552957296371
-0.05266755819320679
0.04705548286437988
0.11129668354988098
-0.010793253779411316
0.13864675164222717
0.028892919421195984
-0.09211184084415436
-0.14113497734069824
0.004963904619216919
-0.11520688980817795
0.05878022313117981
-0.035663455724716187
-0.020802095532417297
-0.12495777755975723
-0.0986064225435257
0.051518335938453674
0.07241290807723999
0.11248254776000977
-0.06522280722856522
0.11887314915657043
0.1282328963279724
0.10312893986701965
0.004018068313598633
0.02140648663043976
-0.007370978593826294
0.07494689524173737
-0.011679589748382568
-0.1274448186159134
0.12276497483253479
-0.07515378296375275
0.08834594488143921
-0.043228618800640106
0.008919164538383484
0.009157687425613403
0.07004086673259735
0.04032830893993378
0.05424310266971588
0.0708538293838501
0.037261515855789185
0.10659894347190857
-0.06745299696922302
0.04479622840881348
0.11313080787658691
-0.08529298007488251
0.06000642478466034
-0.01952105015516281
-0.07701265066862106
0.058983609080314636
0.03363603353500366
0.04908481240272522
0.11008241772651672
0.024357110261917114
0.14015620946884155
-0.023020721971988678
-0.06613563746213913
-0.1285446584224701
-0.0362732857465744
-0.022442519664764404
-0.00816906988620758
-0.11834822595119476
0.007176131010055542
0.034739166498184204
0.12226074934005737
-0.058666765689849854
-0.05121791362762451
-0.07290580123662949
0.056519851088523865
0.08412067592144012
-0.1043953001499176
0.08627453446388245
-0.05601963400840759
-0.0313989594578743
0.07159650325775146
0.06161920726299286
0.09669674932956696
0.01062968373298645
-0.0331762358546257
-0.07909975200891495
-0.13755707442760468
0.039275482296943665
-0.017440035939216614
0.10963848233222961
-0.08329098671674728
-0.09211459010839462
0.08496443927288055
-0.10371017456054688
0.03484340012073517
0.05104716122150421
-0.01338908076286316
0.07727760076522827
-0.03836877644062042
-0.015746518969535828
-0.06905188411474228
0.03048078715801239
-0.13045620918273926
0.029425516724586487
-0.02483276277780533
0.055054694414138794
-0.12703710794448853
0.02871789038181305
0.05164051055908203
0.11894813179969788
-0.10763498395681381
-0.07330998033285141
-0.020574524998664856
0.08716988563537598
0.05261607468128204
-0.11359238624572754
-0.10397335886955261
-0.02477770298719406
-0.10970532149076462
0.011949554085731506
-0.06201475113630295
-0.06293132901191711
-0.07464729249477386
0.03285582363605499
-0.13278648257255554
0.10375060141086578
-0.09219281375408173
0.08205370604991913
0.05821746587753296
0.0068178921937942505
-0.05542917549610138
0.10806283354759216
0.11261186003684998
-0.043704405426979065
-0.012796729803085327
-0.10720592737197876
-0.0789373591542244
-0.1365298628807068
0.06356510519981384
0.07125329971313477
0.08120684325695038
0.0677267462015152
0.09121938049793243
0.09194672107696533
-0.04780420660972595
-0.1236770749092102
-0.06033836305141449
0.138889342546463
0.09873746335506439
0.1349686086177826
0.13137251138687134
0.02046269178390503
0.1013248860836029
-0.003890976309776306
-0.09985952079296112
-0.02328401803970337
-0.0031975358724594116
0.10776597261428833
0.13813769817352295
-0.07004448026418686
0.14357325434684753
-0.0038647204637527466
-0.11123435199260712
0.08262816071510315
0.06982903182506561
0.06381112337112427
0.039937421679496765
-0.03143027424812317
0.023115769028663635
-0.021199941635131836
0.004403725266456604
0.04937043786048889
0.06345674395561218
-0.113006092607975
0.010129526257514954
-0.061783939599990845
-0.11633872985839844
0.05214458703994751
0.026502296328544617
0.10166370868682861
-0.004813835024833679
0.008834853768348694
-0.0660911425948143
-0.08410120010375977
0.04986432194709778
0.10905179381370544
0.06605617702007294
0.04704307019710541
0.01787973940372467
0.07541544735431671
0.08904431760311127
-0.12509921193122864
-0.09193512797355652
-0.10094349086284637
0.017215251922607422
-0.1338549554347992
-0.08146735280752182
-0.08226796239614487
0.12061303853988647
0.00691145658493042
0.04331812262535095
0.14216917753219604
-0.11299856007099152
0.129928320646286
0.02490234375
0.12202268838882446
-0.09647183120250702
0.013634994626045227
0.08098161220550537
0.09518299996852875
0.019416674971580505
-0.12613645195960999
-0.0723143145442009
-0.03365299105644226
-0.008270114660263062
0.10288192331790924
0.09884820878505707
0.0029571205377578735
0.05155980587005615
-0.04381366819143295
0.00035537779331207275
0.11839118599891663
0.004036933183670044
0.02014818787574768
-0.010335534811019897
0.12922978401184082
-0.10966777801513672
0.09087121486663818
0.12182959914207458
-0.023570843040943146
-0.03927985578775406
-0.1352747529745102
-0.0541558712720871
0.022190794348716736
0.13743537664413452
-0.13213342428207397
0.09846208989620209
0.09103144705295563
-0.07784227281808853
-0.13865481317043304
0.09665517508983612
0.0880511999130249
-0.016521185636520386
0.06120388209819794
0.1370735764503479
-0.1319238841533661
0.0584583580493927
0.13441702723503113
-0.1043027937412262
0.02005791664123535
-0.07590803503990173
0.11315801739692688
0.021727144718170166
0.09366564452648163
0.035260409116744995
0.11550506949424744
-0.08246852457523346
-0.008964240550994873
-0.08274629712104797
-0.07911355048418045
-0.0664181038737297
-0.1379307061433792
0.043579310178756714
-0.0465354397892952
0.1148701012134552
-0.08408640325069427
0.04779598116874695
0.03024633228778839
0.04569137096405029
-0.03902492672204971
0.12081277370452881
0.040140002965927124
0.13503193855285645
0.10403992235660553
-0.05314513295888901
-0.05357065051794052
-0.12543387711048126
0.14297860860824585
-0.08844694495201111
-0.09015189111232758
0.1244211196899414
-0.11826016008853912
-0.06726434826850891
0.059820204973220825
0.047352954745292664
-0.013342931866645813
0.01366637647151947
0.11267286539077759
-0.14146412909030914
0.04426874220371246
-0.11239561438560486
0.12391850352287292
0.04258836805820465
-0.10550720989704132
-0.12106724083423615
-0.07317129522562027
-0.09223338216543198
0.015048041939735413
0.14199456572532654
-0.09986785054206848
-0.14403985440731049
-0.07652953267097473
0.03134647011756897
-0.07514569163322449
-0.11885347217321396
0.07261700928211212
-0.13540852069854736
0.10140806436538696
-0.01570887863636017
-0.1359855830669403
0.060537442564964294
-0.1376582235097885
0.004503324627876282
-0.11946488171815872
0.05269594490528107
-0.09801235049962997
0.07337023317813873
-0.09278938919305801
0.04596254229545593
0.061085090041160583
0.13266849517822266
0.0738820880651474
0.13811591267585754
0.007980838418006897
0.1034746915102005
0.12243640422821045
-0.019244343042373657
-0.05021124333143234
-0.10035420954227448
-0.1218944638967514
-0.11332826316356659
-0.12975770235061646
0.09302125871181488
-0.0693925991654396
-0.08281415700912476
-0.1121244728565216
0.0035552531480789185
0.04125545918941498
0.002098381519317627
-0.11115200072526932
0.1253466010093689
0.12862935662269592
-0.016463235020637512
0.08839714527130127
-0.06699220836162567
-0.04079838842153549
0.053487032651901245
0.13518598675727844
-0.07880541682243347
-0.13127589225769043
-0.10718734562397003
0.010127231478691101
0.10705268383026123
-0.005824461579322815
-0.08449184894561768
-0.07094252109527588
-0.13654300570487976
0.04751816391944885
0.015626758337020874
0.09099359810352325
0.10331311821937561